FANN_FLO_2.0
num_layers=3
learning_rate=0.700000
connection_rate=1.000000
shortcut_connections=0
learning_momentum=0.000000
training_algorithm=2
train_error_function=1
train_stop_function=0
cascade_output_change_fraction=0.010000
quickprop_decay=-0.000100
quickprop_mu=1.750000
rprop_increase_factor=1.200000
rprop_decrease_factor=0.500000
rprop_delta_min=0.000000
rprop_delta_max=50.000000
rprop_delta_zero=0.500000
cascade_output_stagnation_epochs=12
cascade_candidate_change_fraction=0.010000
cascade_candidate_stagnation_epochs=12
cascade_max_out_epochs=150
cascade_max_cand_epochs=150
cascade_num_candidate_groups=2
bit_fail_limit=3.49999999999999977796e-01
cascade_candidate_limit=1.00000000000000000000e+03
cascade_weight_multiplier=4.00000000000000022204e-01
cascade_activation_functions_count=6
cascade_activation_functions=3 5 7 8 10 11 
cascade_activation_steepnesses_count=4
cascade_activation_steepnesses=2.50000000000000000000e-01 5.00000000000000000000e-01 7.50000000000000000000e-01 1.00000000000000000000e+00 
layer_sizes=193 115 37 
neurons (num_inputs, activation_function, activation_steepness)=(0, 0, 0.00000000000000000000e+00) (0, 0, 0.00000000000000000000e+00) (0, 0, 0.00000000000000000000e+00) (0, 0, 0.00000000000000000000e+00) (0, 0, 0.00000000000000000000e+00) (0, 0, 0.00000000000000000000e+00) (0, 0, 0.00000000000000000000e+00) (0, 0, 0.00000000000000000000e+00) (0, 0, 0.00000000000000000000e+00) (0, 0, 0.00000000000000000000e+00) (0, 0, 0.00000000000000000000e+00) (0, 0, 0.00000000000000000000e+00) (0, 0, 0.00000000000000000000e+00) (0, 0, 0.00000000000000000000e+00) (0, 0, 0.00000000000000000000e+00) (0, 0, 0.00000000000000000000e+00) (0, 0, 0.00000000000000000000e+00) (0, 0, 0.00000000000000000000e+00) (0, 0, 0.00000000000000000000e+00) (0, 0, 0.00000000000000000000e+00) (0, 0, 0.00000000000000000000e+00) (0, 0, 0.00000000000000000000e+00) (0, 0, 0.00000000000000000000e+00) (0, 0, 0.00000000000000000000e+00) (0, 0, 0.00000000000000000000e+00) (0, 0, 0.00000000000000000000e+00) (0, 0, 0.00000000000000000000e+00) (0, 0, 0.00000000000000000000e+00) (0, 0, 0.00000000000000000000e+00) (0, 0, 0.00000000000000000000e+00) (0, 0, 0.00000000000000000000e+00) (0, 0, 0.00000000000000000000e+00) (0, 0, 0.00000000000000000000e+00) (0, 0, 0.00000000000000000000e+00) (0, 0, 0.00000000000000000000e+00) (0, 0, 0.00000000000000000000e+00) (0, 0, 0.00000000000000000000e+00) (0, 0, 0.00000000000000000000e+00) (0, 0, 0.00000000000000000000e+00) (0, 0, 0.00000000000000000000e+00) (0, 0, 0.00000000000000000000e+00) (0, 0, 0.00000000000000000000e+00) (0, 0, 0.00000000000000000000e+00) (0, 0, 0.00000000000000000000e+00) (0, 0, 0.00000000000000000000e+00) (0, 0, 0.00000000000000000000e+00) (0, 0, 0.00000000000000000000e+00) (0, 0, 0.00000000000000000000e+00) (0, 0, 0.00000000000000000000e+00) (0, 0, 0.00000000000000000000e+00) (0, 0, 0.00000000000000000000e+00) (0, 0, 0.00000000000000000000e+00) (0, 0, 0.00000000000000000000e+00) (0, 0, 0.00000000000000000000e+00) (0, 0, 0.00000000000000000000e+00) (0, 0, 0.00000000000000000000e+00) (0, 0, 0.00000000000000000000e+00) (0, 0, 0.00000000000000000000e+00) (0, 0, 0.00000000000000000000e+00) (0, 0, 0.00000000000000000000e+00) (0, 0, 0.00000000000000000000e+00) (0, 0, 0.00000000000000000000e+00) (0, 0, 0.00000000000000000000e+00) (0, 0, 0.00000000000000000000e+00) (0, 0, 0.00000000000000000000e+00) (0, 0, 0.00000000000000000000e+00) (0, 0, 0.00000000000000000000e+00) (0, 0, 0.00000000000000000000e+00) (0, 0, 0.00000000000000000000e+00) (0, 0, 0.00000000000000000000e+00) (0, 0, 0.00000000000000000000e+00) (0, 0, 0.00000000000000000000e+00) (0, 0, 0.00000000000000000000e+00) (0, 0, 0.00000000000000000000e+00) (0, 0, 0.00000000000000000000e+00) (0, 0, 0.00000000000000000000e+00) (0, 0, 0.00000000000000000000e+00) (0, 0, 0.00000000000000000000e+00) (0, 0, 0.00000000000000000000e+00) (0, 0, 0.00000000000000000000e+00) (0, 0, 0.00000000000000000000e+00) (0, 0, 0.00000000000000000000e+00) (0, 0, 0.00000000000000000000e+00) (0, 0, 0.00000000000000000000e+00) (0, 0, 0.00000000000000000000e+00) (0, 0, 0.00000000000000000000e+00) (0, 0, 0.00000000000000000000e+00) (0, 0, 0.00000000000000000000e+00) (0, 0, 0.00000000000000000000e+00) (0, 0, 0.00000000000000000000e+00) (0, 0, 0.00000000000000000000e+00) (0, 0, 0.00000000000000000000e+00) (0, 0, 0.00000000000000000000e+00) (0, 0, 0.00000000000000000000e+00) (0, 0, 0.00000000000000000000e+00) (0, 0, 0.00000000000000000000e+00) (0, 0, 0.00000000000000000000e+00) (0, 0, 0.00000000000000000000e+00) (0, 0, 0.00000000000000000000e+00) (0, 0, 0.00000000000000000000e+00) (0, 0, 0.00000000000000000000e+00) (0, 0, 0.00000000000000000000e+00) (0, 0, 0.00000000000000000000e+00) (0, 0, 0.00000000000000000000e+00) (0, 0, 0.00000000000000000000e+00) (0, 0, 0.00000000000000000000e+00) (0, 0, 0.00000000000000000000e+00) (0, 0, 0.00000000000000000000e+00) (0, 0, 0.00000000000000000000e+00) (0, 0, 0.00000000000000000000e+00) (0, 0, 0.00000000000000000000e+00) (0, 0, 0.00000000000000000000e+00) (0, 0, 0.00000000000000000000e+00) (0, 0, 0.00000000000000000000e+00) (0, 0, 0.00000000000000000000e+00) (0, 0, 0.00000000000000000000e+00) (0, 0, 0.00000000000000000000e+00) (0, 0, 0.00000000000000000000e+00) (0, 0, 0.00000000000000000000e+00) (0, 0, 0.00000000000000000000e+00) (0, 0, 0.00000000000000000000e+00) (0, 0, 0.00000000000000000000e+00) (0, 0, 0.00000000000000000000e+00) (0, 0, 0.00000000000000000000e+00) (0, 0, 0.00000000000000000000e+00) (0, 0, 0.00000000000000000000e+00) (0, 0, 0.00000000000000000000e+00) (0, 0, 0.00000000000000000000e+00) (0, 0, 0.00000000000000000000e+00) (0, 0, 0.00000000000000000000e+00) (0, 0, 0.00000000000000000000e+00) (0, 0, 0.00000000000000000000e+00) (0, 0, 0.00000000000000000000e+00) (0, 0, 0.00000000000000000000e+00) (0, 0, 0.00000000000000000000e+00) (0, 0, 0.00000000000000000000e+00) (0, 0, 0.00000000000000000000e+00) (0, 0, 0.00000000000000000000e+00) (0, 0, 0.00000000000000000000e+00) (0, 0, 0.00000000000000000000e+00) (0, 0, 0.00000000000000000000e+00) (0, 0, 0.00000000000000000000e+00) (0, 0, 0.00000000000000000000e+00) (0, 0, 0.00000000000000000000e+00) (0, 0, 0.00000000000000000000e+00) (0, 0, 0.00000000000000000000e+00) (0, 0, 0.00000000000000000000e+00) (0, 0, 0.00000000000000000000e+00) (0, 0, 0.00000000000000000000e+00) (0, 0, 0.00000000000000000000e+00) (0, 0, 0.00000000000000000000e+00) (0, 0, 0.00000000000000000000e+00) (0, 0, 0.00000000000000000000e+00) (0, 0, 0.00000000000000000000e+00) (0, 0, 0.00000000000000000000e+00) (0, 0, 0.00000000000000000000e+00) (0, 0, 0.00000000000000000000e+00) (0, 0, 0.00000000000000000000e+00) (0, 0, 0.00000000000000000000e+00) (0, 0, 0.00000000000000000000e+00) (0, 0, 0.00000000000000000000e+00) (0, 0, 0.00000000000000000000e+00) (0, 0, 0.00000000000000000000e+00) (0, 0, 0.00000000000000000000e+00) (0, 0, 0.00000000000000000000e+00) (0, 0, 0.00000000000000000000e+00) (0, 0, 0.00000000000000000000e+00) (0, 0, 0.00000000000000000000e+00) (0, 0, 0.00000000000000000000e+00) (0, 0, 0.00000000000000000000e+00) (0, 0, 0.00000000000000000000e+00) (0, 0, 0.00000000000000000000e+00) (0, 0, 0.00000000000000000000e+00) (0, 0, 0.00000000000000000000e+00) (0, 0, 0.00000000000000000000e+00) (0, 0, 0.00000000000000000000e+00) (0, 0, 0.00000000000000000000e+00) (0, 0, 0.00000000000000000000e+00) (0, 0, 0.00000000000000000000e+00) (0, 0, 0.00000000000000000000e+00) (0, 0, 0.00000000000000000000e+00) (0, 0, 0.00000000000000000000e+00) (0, 0, 0.00000000000000000000e+00) (0, 0, 0.00000000000000000000e+00) (0, 0, 0.00000000000000000000e+00) (0, 0, 0.00000000000000000000e+00) (0, 0, 0.00000000000000000000e+00) (0, 0, 0.00000000000000000000e+00) (0, 0, 0.00000000000000000000e+00) (0, 0, 0.00000000000000000000e+00) (0, 0, 0.00000000000000000000e+00) (0, 0, 0.00000000000000000000e+00) (0, 0, 0.00000000000000000000e+00) (193, 3, 5.00000000000000000000e-01) (193, 3, 5.00000000000000000000e-01) (193, 3, 5.00000000000000000000e-01) (193, 3, 5.00000000000000000000e-01) (193, 3, 5.00000000000000000000e-01) (193, 3, 5.00000000000000000000e-01) (193, 3, 5.00000000000000000000e-01) (193, 3, 5.00000000000000000000e-01) (193, 3, 5.00000000000000000000e-01) (193, 3, 5.00000000000000000000e-01) (193, 3, 5.00000000000000000000e-01) (193, 3, 5.00000000000000000000e-01) (193, 3, 5.00000000000000000000e-01) (193, 3, 5.00000000000000000000e-01) (193, 3, 5.00000000000000000000e-01) (193, 3, 5.00000000000000000000e-01) (193, 3, 5.00000000000000000000e-01) (193, 3, 5.00000000000000000000e-01) (193, 3, 5.00000000000000000000e-01) (193, 3, 5.00000000000000000000e-01) (193, 3, 5.00000000000000000000e-01) (193, 3, 5.00000000000000000000e-01) (193, 3, 5.00000000000000000000e-01) (193, 3, 5.00000000000000000000e-01) (193, 3, 5.00000000000000000000e-01) (193, 3, 5.00000000000000000000e-01) (193, 3, 5.00000000000000000000e-01) (193, 3, 5.00000000000000000000e-01) (193, 3, 5.00000000000000000000e-01) (193, 3, 5.00000000000000000000e-01) (193, 3, 5.00000000000000000000e-01) (193, 3, 5.00000000000000000000e-01) (193, 3, 5.00000000000000000000e-01) (193, 3, 5.00000000000000000000e-01) (193, 3, 5.00000000000000000000e-01) (193, 3, 5.00000000000000000000e-01) (193, 3, 5.00000000000000000000e-01) (193, 3, 5.00000000000000000000e-01) (193, 3, 5.00000000000000000000e-01) (193, 3, 5.00000000000000000000e-01) (193, 3, 5.00000000000000000000e-01) (193, 3, 5.00000000000000000000e-01) (193, 3, 5.00000000000000000000e-01) (193, 3, 5.00000000000000000000e-01) (193, 3, 5.00000000000000000000e-01) (193, 3, 5.00000000000000000000e-01) (193, 3, 5.00000000000000000000e-01) (193, 3, 5.00000000000000000000e-01) (193, 3, 5.00000000000000000000e-01) (193, 3, 5.00000000000000000000e-01) (193, 3, 5.00000000000000000000e-01) (193, 3, 5.00000000000000000000e-01) (193, 3, 5.00000000000000000000e-01) (193, 3, 5.00000000000000000000e-01) (193, 3, 5.00000000000000000000e-01) (193, 3, 5.00000000000000000000e-01) (193, 3, 5.00000000000000000000e-01) (193, 3, 5.00000000000000000000e-01) (193, 3, 5.00000000000000000000e-01) (193, 3, 5.00000000000000000000e-01) (193, 3, 5.00000000000000000000e-01) (193, 3, 5.00000000000000000000e-01) (193, 3, 5.00000000000000000000e-01) (193, 3, 5.00000000000000000000e-01) (193, 3, 5.00000000000000000000e-01) (193, 3, 5.00000000000000000000e-01) (193, 3, 5.00000000000000000000e-01) (193, 3, 5.00000000000000000000e-01) (193, 3, 5.00000000000000000000e-01) (193, 3, 5.00000000000000000000e-01) (193, 3, 5.00000000000000000000e-01) (193, 3, 5.00000000000000000000e-01) (193, 3, 5.00000000000000000000e-01) (193, 3, 5.00000000000000000000e-01) (193, 3, 5.00000000000000000000e-01) (193, 3, 5.00000000000000000000e-01) (193, 3, 5.00000000000000000000e-01) (193, 3, 5.00000000000000000000e-01) (193, 3, 5.00000000000000000000e-01) (193, 3, 5.00000000000000000000e-01) (193, 3, 5.00000000000000000000e-01) (193, 3, 5.00000000000000000000e-01) (193, 3, 5.00000000000000000000e-01) (193, 3, 5.00000000000000000000e-01) (193, 3, 5.00000000000000000000e-01) (193, 3, 5.00000000000000000000e-01) (193, 3, 5.00000000000000000000e-01) (193, 3, 5.00000000000000000000e-01) (193, 3, 5.00000000000000000000e-01) (193, 3, 5.00000000000000000000e-01) (193, 3, 5.00000000000000000000e-01) (193, 3, 5.00000000000000000000e-01) (193, 3, 5.00000000000000000000e-01) (193, 3, 5.00000000000000000000e-01) (193, 3, 5.00000000000000000000e-01) (193, 3, 5.00000000000000000000e-01) (193, 3, 5.00000000000000000000e-01) (193, 3, 5.00000000000000000000e-01) (193, 3, 5.00000000000000000000e-01) (193, 3, 5.00000000000000000000e-01) (193, 3, 5.00000000000000000000e-01) (193, 3, 5.00000000000000000000e-01) (193, 3, 5.00000000000000000000e-01) (193, 3, 5.00000000000000000000e-01) (193, 3, 5.00000000000000000000e-01) (193, 3, 5.00000000000000000000e-01) (193, 3, 5.00000000000000000000e-01) (193, 3, 5.00000000000000000000e-01) (193, 3, 5.00000000000000000000e-01) (193, 3, 5.00000000000000000000e-01) (193, 3, 5.00000000000000000000e-01) (193, 3, 5.00000000000000000000e-01) (193, 3, 5.00000000000000000000e-01) (193, 3, 5.00000000000000000000e-01) (0, 3, 0.00000000000000000000e+00) (115, 3, 5.00000000000000000000e-01) (115, 3, 5.00000000000000000000e-01) (115, 3, 5.00000000000000000000e-01) (115, 3, 5.00000000000000000000e-01) (115, 3, 5.00000000000000000000e-01) (115, 3, 5.00000000000000000000e-01) (115, 3, 5.00000000000000000000e-01) (115, 3, 5.00000000000000000000e-01) (115, 3, 5.00000000000000000000e-01) (115, 3, 5.00000000000000000000e-01) (115, 3, 5.00000000000000000000e-01) (115, 3, 5.00000000000000000000e-01) (115, 3, 5.00000000000000000000e-01) (115, 3, 5.00000000000000000000e-01) (115, 3, 5.00000000000000000000e-01) (115, 3, 5.00000000000000000000e-01) (115, 3, 5.00000000000000000000e-01) (115, 3, 5.00000000000000000000e-01) (115, 3, 5.00000000000000000000e-01) (115, 3, 5.00000000000000000000e-01) (115, 3, 5.00000000000000000000e-01) (115, 3, 5.00000000000000000000e-01) (115, 3, 5.00000000000000000000e-01) (115, 3, 5.00000000000000000000e-01) (115, 3, 5.00000000000000000000e-01) (115, 3, 5.00000000000000000000e-01) (115, 3, 5.00000000000000000000e-01) (115, 3, 5.00000000000000000000e-01) (115, 3, 5.00000000000000000000e-01) (115, 3, 5.00000000000000000000e-01) (115, 3, 5.00000000000000000000e-01) (115, 3, 5.00000000000000000000e-01) (115, 3, 5.00000000000000000000e-01) (115, 3, 5.00000000000000000000e-01) (115, 3, 5.00000000000000000000e-01) (115, 3, 5.00000000000000000000e-01) (0, 3, 0.00000000000000000000e+00) 
connections (connected_to_neuron, weight)=(0, -4.22531186017376967357e+01) (1, -1.04877714507782937581e+00) (2, 9.65425227883988767985e-01) (3, -1.45033146753956398989e-01) (4, -6.43170638369658265177e-01) (5, -6.50072005629824034578e-01) (6, 7.83775606611991748629e-01) (7, 6.90251127943515618846e-01) (8, -4.72527350302109461211e-01) (9, 1.02103031166314695000e+00) (10, 7.39875268017495923978e-01) (11, 6.88834039617475801798e-01) (12, -2.55398484675528669730e-01) (13, 2.64924095673687853836e-01) (14, 1.09539402288705289834e+00) (15, -3.70042211376130580902e-01) (16, -2.44271361642425723915e+01) (17, -1.59094494691658749908e+00) (18, 1.99017945031324883232e+00) (19, -4.61090818460293816461e-01) (20, -7.87496708943986822860e-01) (21, -3.60185277591693997490e-01) (22, -8.26460404686288674370e-01) (23, -5.70241760206724568327e-01) (24, 2.78732192918102805734e-01) (25, 5.02996444262780562084e-01) (26, 7.71929105719166064326e-01) (27, 3.78370951831353441452e-01) (28, -2.16790471412515506344e-01) (29, 5.20758402517228491391e-01) (30, -5.84128759119645693532e-02) (31, -4.82684094458818435669e-02) (32, -2.48852942093184061889e+01) (33, -1.84479347525805148500e+00) (34, 5.84684209563932455467e+00) (35, -7.58986394569843014768e-02) (36, 8.67616101054101696022e-02) (37, -1.81965111770065113284e+00) (38, -2.64022707339353901457e-01) (39, 1.00795208250117407367e+00) (40, 7.54129317956351075125e-01) (41, -2.33870278964914857234e-01) (42, 8.40320282127057449628e-01) (43, 1.02438340124278481902e+00) (44, 2.05665063155344857160e-01) (45, 9.71859781323438198797e-01) (46, 4.88830540128270485400e-01) (47, 8.60483435913920402527e-01) (48, -2.44092340554019280319e+01) (49, -2.18057071827696669075e+00) (50, 5.02965211107904153209e-01) (51, 4.07793491120520157356e-01) (52, -3.82051208229534311478e-01) (53, -2.60299279769295655029e+00) (54, 6.56994545741892754798e-01) (55, 4.23706992653655467596e-01) (56, -3.08784455338737273689e-01) (57, 9.44176167052520165512e-01) (58, -2.22297394157832728379e-01) (59, -5.84861731410713237000e-02) (60, -6.52342417050223777331e-01) (61, 8.02049004762854345074e-01) (62, 2.07569165763786545043e+00) (63, -3.64065167494118213654e-01) (64, -2.49094198607748218421e+01) (65, 3.24055560485794336145e+00) (66, 3.05257919353750839520e+00) (67, 3.02058462673356897810e-01) (68, -2.54848009603477088092e-01) (69, -2.06935723696837170493e+00) (70, 4.07877936148136610583e-01) (71, -4.44560399346106360774e-01) (72, 5.59632258753080424896e-01) (73, 2.14821012268240907339e-01) (74, -7.13477453454556598267e-01) (75, -8.77812859894416541717e-02) (76, -1.00188154101206766677e-01) (77, -2.08212504558900945995e-01) (78, 5.83032697906442720637e+01) (79, 6.90999914892017841339e-01) (80, -2.42973100813945599441e+01) (81, 2.37675056134685069864e+00) (82, 5.89121637873230064031e+00) (83, 5.75399645801667913858e-01) (84, 1.00503448564518399477e-01) (85, -2.24404390865449138159e-01) (86, -9.43978165307699512709e-02) (87, 5.54791909292328688785e-01) (88, 8.82812660494434964242e-01) (89, 1.00540426396562931899e+00) (90, 1.45794415614641881263e+00) (91, 1.67514802694807257710e-01) (92, 1.48442312745016763431e-01) (93, 7.08096191319796397501e-01) (94, 5.99495952103012115231e+01) (95, 4.89428666420280933380e-01) (96, -2.42293671351766057853e+01) (97, 3.09106277566621123754e-01) (98, 2.06722472243805288628e+00) (99, 1.39041207960122648046e-01) (100, 5.46131207797140194593e-01) (101, -5.51106608596860780835e-01) (102, -7.92416036960369662978e-01) (103, -6.48661778551111543184e-03) (104, 1.12577848449939765807e+00) (105, -3.67405192861677387661e-01) (106, 3.31193836030805321968e-01) (107, -8.81780620496038225475e-01) (108, 2.02998207566110061562e-01) (109, 3.33642606346211512136e-01) (110, 1.10806138963361195948e+01) (111, 9.74465899169445037842e-01) (112, 1.61691017117898794275e-01) (113, -1.33562405641300574466e+00) (114, 6.15583413724650529986e-01) (115, 1.05212269511562137025e-01) (116, -2.43383496123711573489e-01) (117, -4.36512875319148396791e-01) (118, -4.85111569486662674855e-01) (119, 3.17108795210261973363e-01) (120, -3.33683537433701216113e-01) (121, -2.89980766531261424657e-01) (122, -3.25674293552660587547e-01) (123, 6.57346524067746851294e-01) (124, 9.65383057111457998367e-01) (125, -6.07827045099380014470e-01) (126, 5.75486598426287265795e+00) (127, -1.78202535957098007202e-01) (128, 4.65360737997182383197e+00) (129, -2.94127023972675338825e+00) (130, -3.01899067969946144352e-01) (131, 5.53617701017034335997e-01) (132, -9.65338147321880279961e-02) (133, 1.53307338431312584204e-01) (134, -7.31662731353780793064e-01) (135, -2.12272009494854640987e-01) (136, 1.06533451071994433867e+00) (137, 5.57255525130237683307e-01) (138, 9.81106026751756288284e-01) (139, -1.86718113456350994980e-03) (140, -4.06271404805853275644e-01) (141, -7.48022740887317350023e-01) (142, 5.50017734506909938830e+00) (143, -7.61905531398952007294e-01) (144, 4.78942624232807023787e+00) (145, -2.11844066627510652090e-01) (146, 3.22691787999803247899e-01) (147, -3.33680856557953264829e-01) (148, 1.69490674479774477978e-01) (149, 7.68533849465587004524e-01) (150, -8.49497884893560262221e-01) (151, 7.12219976988933800577e-01) (152, -6.78907116825062995069e-01) (153, 4.55695281291458254014e-01) (154, 2.88598009725064441611e+00) (155, -6.45899310799490589119e-01) (156, 1.18176848126474484668e-01) (157, -5.79092290265500575508e-01) (158, 1.75939381026843157940e+01) (159, -4.54940311610698699951e-01) (160, 3.48833679742135815971e+00) (161, 1.17817736885862900387e+00) (162, -1.29439445475930980933e+00) (163, 5.43938294937446720212e-01) (164, -6.17571147626035724110e-02) (165, -6.29858456410393618974e-01) (166, -8.87148063653463880840e-01) (167, -6.77919105366343255348e-01) (168, 6.22621824832369608060e-01) (169, 6.56690556178157858191e-01) (170, 7.10275549015472074110e-01) (171, -3.58759835140807503695e-01) (172, 1.35281468147618366693e+00) (173, -4.46993398334281755169e-01) (174, 1.72376269201928344899e+01) (175, 4.07619222067296504974e-01) (176, 3.90594219564416178514e+00) (177, 6.62282626257950024495e+00) (178, -7.20575050111488590865e-01) (179, -7.72008231931517352464e-01) (180, 6.76928692270575615986e-01) (181, -9.76122292095225385644e-01) (182, 5.41320986703052287048e-01) (183, -1.12454245388660623028e+00) (184, -9.88909737825433565739e-02) (185, 1.50352516558803946112e-02) (186, -6.07128294245844579713e-01) (187, 1.03956210463675713385e+00) (188, 1.77203721395331775801e-01) (189, 2.96816532378400499415e-01) (190, 3.56055700541110923041e+02) (191, 5.03585326485335826874e-01) (192, 2.43991672556561484120e-02) (0, -1.15991237003730773836e+00) (1, -4.08560587439981581781e-01) (2, 6.95154163600631869180e-01) (3, 1.12103369765781571421e-01) (4, -1.09252424102424493257e-03) (5, -2.47877747885931060123e-01) (6, -3.72782182006182405409e-01) (7, -4.46243223618543294329e-01) (8, -1.03405001718828737367e+00) (9, -2.70581870448550532160e+00) (10, -8.90254998128853336503e-01) (11, -8.30138064681622545038e-01) (12, 2.75353295648394613693e-01) (13, 1.56622035880366250460e+00) (14, 7.39460910140563920656e-01) (15, 5.92121622525155544281e-01) (16, 1.08626099497152517337e+00) (17, 1.54288035311896248869e-01) (18, -4.88783571143547812543e-01) (19, 9.54346601247338721663e-01) (20, 3.00672886732717303815e-01) (21, 3.82898172210952958405e-01) (22, -3.00173697708153608410e-01) (23, -9.82810197896123560746e-01) (24, 4.72429330398983271522e-01) (25, -8.14702952858824658300e-01) (26, 1.97164316102770333095e-02) (27, -2.47237473124841705685e-01) (28, -2.72384822393743231128e-01) (29, -1.82110167284566387691e-01) (30, 2.32583075174360764947e+00) (31, 1.07101386412978172302e-01) (32, 8.76059784629177551452e-01) (33, 1.43536044096119252966e-01) (34, 1.37265580251557731128e-02) (35, -4.49310449565912428671e-01) (36, -5.59289550545993940922e-01) (37, -3.60405872141018546184e-01) (38, 1.90719685048823944795e-01) (39, -3.29682616477062373495e-01) (40, 6.42994527427707573963e-01) (41, 1.24081867058337125265e-01) (42, 8.92098875594904694442e-02) (43, 1.65538551136935552233e-01) (44, -1.93613001461385384611e-03) (45, -4.77170525466846906504e-01) (46, -1.22269121464377142350e-01) (47, -2.98067589290440082550e-01) (48, -4.75556881091762029268e-01) (49, -1.35930822051901545322e+00) (50, -7.72342786268082726053e-01) (51, 3.58797830233958336965e-01) (52, 2.22178927690139721429e-01) (53, 2.86304208462610954022e-01) (54, 5.44389161757618755821e-01) (55, 1.78794543542337924791e-01) (56, 1.13077283434896092018e+00) (57, -6.45668972732074353260e-01) (58, 8.76252170334315683142e-01) (59, -5.35332684164063543619e-01) (60, 1.97183597345893302233e-01) (61, 5.11023015244037703830e-01) (62, 9.04176654419006520236e-01) (63, -3.65666275843977928162e-01) (64, 6.00530066602658729735e-01) (65, 3.23140646601156156237e-01) (66, 1.16634048055935565791e-01) (67, 5.88196295902097321395e-01) (68, 7.50759232992517455685e-01) (69, -9.41848939988318090144e-01) (70, -7.01565230225214331305e-01) (71, 4.97722980979600215790e-01) (72, 8.31471896695046064352e-01) (73, 1.11870681299055009517e-02) (74, -3.35574691724741358545e-01) (75, -2.98093182495072106519e-01) (76, 1.23223266381779716916e+00) (77, 4.24005317079839960659e-01) (78, 1.30107963055009978603e+00) (79, 9.46534085087478160858e-01) (80, 8.65598850958775978270e-01) (81, 6.63838084437562647722e-01) (82, 2.96951519505009919886e-01) (83, -2.30884351619738067973e-02) (84, -5.13200323693458748675e-02) (85, -4.64367396044537028565e-01) (86, -9.82617331180398845270e-01) (87, -3.08258769147333799854e-01) (88, 2.17977405680970182100e-01) (89, 5.15745353150766083772e-01) (90, 1.56850159948326961512e-01) (91, -5.29168666678325849695e-01) (92, 6.69947548524225888755e-01) (93, -2.16029329182450741120e-01) (94, 1.14772191427285807919e+00) (95, -4.74867069162428379059e-01) (96, -4.19591419323552095033e-01) (97, -1.15487058268667297511e+00) (98, -9.17059764980043601312e-01) (99, 1.75311207105195515643e-01) (100, -6.24639845553241701559e-01) (101, -7.55078622308838043331e-01) (102, 5.28265867697651270163e-01) (103, 8.31900061206160668092e-01) (104, 1.42096326120623256406e-01) (105, -8.05524646236952746037e-01) (106, -7.71009209919470528405e-01) (107, 2.81032745857026922121e-01) (108, 5.34978050206781241549e-01) (109, 3.34695885370234702538e-01) (110, 9.90344421213892878164e-01) (111, 1.75449671223759651184e-02) (112, 7.00009018315811859523e-01) (113, -7.71154167639061860484e-01) (114, 1.06018167892462122914e+00) (115, -5.31657968616426113151e-01) (116, 2.52410653970094489562e-01) (117, 1.09572945177467939715e+00) (118, -3.66754667827212887943e-01) (119, -3.39520325200502015583e-01) (120, 7.27174576265092187377e-01) (121, -6.48162017174282234500e-01) (122, 7.53856829179089943382e-02) (123, 4.18675135620353577881e-01) (124, 3.29232783823633634590e-01) (125, -1.19962380137740076691e+00) (126, 2.25663773065509776217e-01) (127, 2.17840448021888732910e-01) (128, -8.70070329925710650443e-01) (129, 5.49740612384041704708e-01) (130, 6.26373477386180654847e-01) (131, -4.23766794739906582645e-01) (132, 1.00312937204379504230e+00) (133, -5.21296910607870877391e-03) (134, -6.73846943264089004444e-01) (135, 2.62245364587587015404e-01) (136, 1.01433788943892280732e-01) (137, -3.43646460254027549808e-02) (138, -3.66404604125970145834e-01) (139, 6.83159833545218253548e-02) (140, -4.59786588628756098807e-01) (141, 6.16542938139345020332e-01) (142, 2.64657654149534737886e-01) (143, 7.70098499022424221039e-01) (144, -7.86742121039623709677e-01) (145, 4.92891382175157155565e-01) (146, -8.39395263148036363532e-01) (147, 6.00242597957752588300e-01) (148, 6.88617782802709910150e-01) (149, 7.66819545289319837167e-01) (150, -8.93458474057615692487e-01) (151, 3.20220875520972170225e-01) (152, 3.94734404788649240192e-01) (153, 2.83799163968231848987e-01) (154, -5.37165070577257819373e-01) (155, -1.22562408762916366656e-01) (156, 2.40139807337959115818e-01) (157, -1.17686718587670813285e+00) (158, -7.64277490964818273511e+00) (159, 3.74817486852407455444e-01) (160, 6.58809365646248368265e-01) (161, -2.51485507425199469878e-02) (162, 9.47158665571727120813e-01) (163, 7.03523203672512087437e-01) (164, -7.86996434302680736295e-01) (165, -5.75433968687822594568e-01) (166, -4.44296020786852166595e-02) (167, 1.95611948668728108380e-01) (168, 2.63026237577480226371e-01) (169, 6.99215720753924574460e-01) (170, 9.46392574512352480198e-01) (171, 5.98579125461881966785e-01) (172, 5.84444117012336672445e-01) (173, 7.24181856506982746247e-01) (174, -8.14574730480748598893e+00) (175, 6.52499873191118240356e-01) (176, -4.61829305279202254053e-02) (177, 2.78057051530929688621e-01) (178, 1.74099427108307031054e-01) (179, -5.86299321234885484344e-01) (180, -2.22803164213763393864e-01) (181, 3.83332760468657662845e-01) (182, 1.00400141978677659438e+00) (183, -6.76355233732235494593e-01) (184, -4.52216405379449126745e-01) (185, -5.23985214289631517914e-01) (186, 1.04283750687169732285e-01) (187, 6.64174535671027466144e-01) (188, 7.74282469125634587037e-01) (189, 4.47048633499788561352e+00) (190, 1.65667592860376267083e+00) (191, -7.48490898869931697845e-01) (192, 8.83218203719400740681e-01) (0, -1.45994515400147073514e-01) (1, -3.23566903665217953101e-01) (2, -2.14315416989680818105e-01) (3, 4.03799398255152153236e-02) (4, -1.13306431019277911720e-01) (5, 2.28360151014445622586e-01) (6, -4.11187379112993467434e-01) (7, -5.00685833633577437318e-01) (8, -1.37681593903019299646e-02) (9, 1.02914400429376695634e+00) (10, 7.99094359462064418587e-01) (11, -5.49557311695738626156e-01) (12, 2.46661970110331696393e-01) (13, 6.92826591290680360302e-01) (14, 1.24113103669217750280e+00) (15, -3.04471334442496299744e-01) (16, -1.16076858853016676165e-01) (17, -2.91940346665236549750e-01) (18, 3.61912670560254057239e-01) (19, 9.41303510763819795137e-01) (20, 1.67383905552243450465e+00) (21, 1.03857511661565160566e+00) (22, -5.70743675392651694800e-01) (23, -4.85418189258995214086e-01) (24, -1.63734169914840882454e-01) (25, 1.12692225705824844439e+00) (26, -7.76882585218321847220e-02) (27, 3.75576063853826525030e-01) (28, 1.74656179681642570456e-01) (29, 2.91434773725354157037e+00) (30, 1.67007284952744483597e+00) (31, 8.21951146237552165985e-01) (32, 2.51227542619193944251e-01) (33, -1.07678999282612086752e+00) (34, -5.46534188149298660875e-01) (35, 9.84823683683693662516e-01) (36, -6.14703099811475528469e-01) (37, 5.77664859390466411959e-01) (38, -6.60848467915271964301e-01) (39, 1.30669564674605626770e-02) (40, 3.32029529809648615846e-01) (41, -1.01663787010042305781e+00) (42, 2.29682107917463157465e-01) (43, -3.05421235725085393753e-01) (44, 5.84140296247751988901e-01) (45, -2.55040630237546861458e-01) (46, 4.25994620761016129507e-01) (47, -8.90547692775726318359e-01) (48, -3.74161329259191710594e-01) (49, -8.45595061076607201755e-01) (50, -5.09896908425376937934e-01) (51, -6.49516615961905685595e-01) (52, -4.33727605006228533746e-01) (53, -3.49928970423903806797e-01) (54, -3.28109362559950878957e-01) (55, -3.54145566691111468582e-01) (56, -7.88754983746435711645e-01) (57, 5.36881749334139346530e-01) (58, -1.71517112625143752780e+00) (59, 4.40203398905489429183e-01) (60, -1.54425162263911008864e-01) (61, 8.82446808540684579647e-01) (62, 8.11189557426686747021e+00) (63, 6.38730851002037525177e-01) (64, -8.09396767514093673501e-02) (65, -1.21133473106106048789e+00) (66, 1.08397578416056483697e+00) (67, 7.21967653938478837183e-01) (68, 6.75901396473414184385e-01) (69, 6.29418001345751099151e-01) (70, 4.57389836216241796318e-01) (71, -1.90786058281908893486e-01) (72, 5.49390389646394861067e-01) (73, -5.00540155132765507418e-01) (74, 4.71005897788579541707e-01) (75, 2.60146281762693332151e-01) (76, 6.07917896190853346283e-01) (77, 1.79253476552594115390e+00) (78, 4.17885546247611259219e+01) (79, 7.17909224331378936768e-01) (80, 9.52158607403720713691e-01) (81, 1.55596358735420655511e-02) (82, -2.29001649298313986192e-01) (83, -5.89110994777320318150e-01) (84, 9.20915955410190223418e-01) (85, -5.82544074048719773273e-01) (86, -7.19739572333925742287e-02) (87, -8.38817570495901443373e-01) (88, -1.02144841169953171089e+00) (89, 3.12026229670573862496e-01) (90, 7.55762759064495637240e-01) (91, -1.69669478808617574250e-01) (92, 6.58606693002548815308e-01) (93, 1.03369384525078888970e+00) (94, 4.08312996403450583216e+01) (95, 9.65043720789253711700e-01) (96, 5.36782250600840393773e-01) (97, 6.31623300327350700734e-01) (98, 1.72177240701505807063e-01) (99, 2.48466624988705420130e-01) (100, 7.60367563213773411945e-01) (101, -8.38454511298805660324e-01) (102, -1.04767410834209639958e+00) (103, 3.29525141211181871181e-01) (104, 6.65510630213813625389e-02) (105, 2.31553585975823650323e-01) (106, -1.33945408593397985442e+00) (107, -7.46538941576028514113e-01) (108, -3.52195403072769364083e-01) (109, -4.21166976434878603808e-01) (110, -1.58707430626391643447e-01) (111, -5.34403074532747268677e-01) (112, 8.75151120254090586492e-01) (113, 3.04968451630408088349e-01) (114, -2.97312832919764576112e-02) (115, 9.80864287525780920163e-01) (116, 2.22531880861181502462e-01) (117, 6.70435828673733746896e-01) (118, -7.03667483000752769229e-01) (119, -9.70379419704833490190e-02) (120, 5.56597988156707357277e-01) (121, -1.38306531518973185868e+00) (122, -1.83345936640078388535e+00) (123, -6.58706391948864378172e-01) (124, 1.07407601285233647581e-01) (125, -1.74165791240533773809e-01) (126, 9.25461011179071757482e-02) (127, -5.79303916543722152710e-01) (128, -1.45069164976469067163e+00) (129, 1.69020676824074778111e+00) (130, 6.37144896332447641107e-01) (131, -5.88422548101227738115e-01) (132, -7.90840727415258459843e-01) (133, 3.78901303548787871112e-01) (134, 9.43360909496500421589e-01) (135, 4.72475324754495717983e-01) (136, 2.44464201553413335022e-01) (137, -1.91394148798631991149e+00) (138, -1.98051563618388715149e-01) (139, 8.24268436779800189873e-02) (140, 9.38785751603165352641e-01) (141, -4.26184308993368454743e-01) (142, -2.29319504072489133151e-01) (143, 1.51893024332821369171e-01) (144, -9.32828258325001158369e-01) (145, 5.28609207538926151315e-01) (146, 1.51764163098644655481e-01) (147, -9.01884306597106943926e-01) (148, 9.51625369423460126805e-02) (149, 4.00391729509755378569e-01) (150, 2.82457647901269370827e-01) (151, -1.32260003507255397004e+00) (152, 3.71815540204036010241e-01) (153, 1.01924158923527263809e+00) (154, 6.63765254046056019099e-01) (155, -3.81516997555776005147e-01) (156, -7.66315621064306951027e-01) (157, -6.65997636400060266659e-01) (158, 4.09401170157039848152e-02) (159, -3.47170306369662284851e-01) (160, -1.69557134184090663176e+00) (161, -3.21044918681457458476e-01) (162, -2.20857944135495448679e-01) (163, -7.48570499870421679489e-01) (164, 1.03778813022511573472e+00) (165, 7.15426190791613458853e-02) (166, 5.64015534825125675056e-01) (167, 1.18246199035776808350e-01) (168, 7.82400876219745411433e-01) (169, 4.16719078047669999609e-01) (170, 7.69173331860368708623e-02) (171, 1.30555576962483460557e-01) (172, -1.05160184657808919440e+00) (173, 7.03700381069821023772e-01) (174, -6.01846690364913006199e-01) (175, 1.12185971811413764954e-01) (176, -7.28838043576462868423e-01) (177, 8.37847889568533843452e-01) (178, -1.29805214242504407540e-01) (179, -8.68420583455271510864e-01) (180, -1.60475146137970675619e-01) (181, -4.14240041662344737894e-01) (182, -2.14710776167957612115e-01) (183, -1.09185740117963803186e+00) (184, 8.43977584794998625384e-01) (185, -8.24380024774443054270e-01) (186, -5.03493999839803696439e-01) (187, -3.20602538695685401748e+00) (188, -8.46590176830548712950e-01) (189, 5.30515877120440126902e+00) (190, 1.96603459941189058213e+01) (191, -1.70540992170572280884e-01) (192, 9.72183007290852274629e-01) (0, 6.95737893606676260916e-01) (1, -7.10974280024745386442e-02) (2, 7.86922902119547185151e-01) (3, -6.88124731563333619233e-02) (4, -3.55965703907717201382e-01) (5, -1.30405736146576245460e-01) (6, -5.85702599471799478792e-01) (7, -1.09927714680165888872e+00) (8, -8.88900708912075510071e-01) (9, 3.98822570540401433181e-01) (10, -7.58918160650036810466e-01) (11, -7.21213796716988264635e-01) (12, -1.78334434061917485037e-01) (13, 3.12628423391978405022e+00) (14, 2.36017531391765511550e-01) (15, 3.64014158956706523895e-01) (16, -5.23077193392265216154e-01) (17, 3.37329748667206941182e-01) (18, 1.08981159905094426854e+00) (19, -1.87201909364657026469e-01) (20, -9.44747640115142228723e-01) (21, -9.60272361028583265607e-01) (22, -1.56751834444533277857e-01) (23, -9.00225305795863239844e-01) (24, -5.40372537411299869170e-01) (25, -2.35011066567605897415e-01) (26, 8.66631080039854534425e-02) (27, -8.80321703351817363981e-01) (28, 1.07465445263724568292e+00) (29, -1.38543185921465195065e+00) (30, -1.01386517641925899547e+00) (31, 4.38170108944177627563e-01) (32, -1.05694746343243564657e-01) (33, 6.79739668756599857424e-01) (34, -1.67892627551186235380e+00) (35, 5.03378274976742035030e-01) (36, -7.92761798820501434326e-02) (37, -3.87418476281533696870e-01) (38, 5.49371315735139753578e-01) (39, 2.25284648672347542764e-01) (40, -4.63015744825192310241e-01) (41, 7.52586356332095141042e-01) (42, 6.74142022602739587889e-01) (43, -4.22843895750152243274e-01) (44, 7.90480421618374062831e-01) (45, 4.95312345414685231693e-02) (46, 6.73477068885463964198e-02) (47, 9.83646200038492679596e-01) (48, -1.01716013599728394290e+00) (49, 7.48591680008618531872e-01) (50, -7.46460153067377785163e-01) (51, -7.30838881069292511938e-01) (52, 7.83199447391446423872e-01) (53, -9.01348317406437393728e-01) (54, -8.34943124744303100115e-01) (55, -2.05357886279917606354e-01) (56, 5.64317180812244023613e-01) (57, 1.09492742030453538149e+00) (58, 6.92453304774936162502e-01) (59, 3.57524464966466615223e-02) (60, 1.28199738941489238542e+00) (61, -8.38824046590927463463e-02) (62, -1.92988404640822963643e+00) (63, -1.03865036740899085999e-01) (64, -5.92684899201441073302e-01) (65, -5.60645864226752332904e-01) (66, -5.63137681823092206557e-01) (67, 5.58294126539017110389e-01) (68, 1.19849256889320882058e-01) (69, -9.04044330255035721855e-01) (70, -4.00709856414750043019e-01) (71, 5.79331754468711879191e-01) (72, -7.28127190053861395036e-01) (73, 1.07253995450660921662e+00) (74, 1.71793796924355102185e+00) (75, 4.65994393660359718101e-01) (76, 3.97252213750254323799e-01) (77, 6.61161671346614632228e-01) (78, -6.47325857714304953028e-01) (79, 2.83117250539362430573e-01) (80, 3.53267157705676071444e-01) (81, -5.68565321967834047534e-01) (82, 5.45056129422953783425e-01) (83, 2.66118265272291487644e-01) (84, -4.68915177305145980391e-01) (85, -9.87185576579811985276e-01) (86, 6.52437793643611207983e-01) (87, 7.36354956824296413842e-01) (88, 5.81922004997932118542e-01) (89, -1.70956865462126272881e+00) (90, -4.33355439699791677999e-01) (91, 8.38476487381593527104e-01) (92, 3.31713217554440997770e-01) (93, -1.29317441569277505331e-02) (94, -1.32298350723881497082e+00) (95, 3.28856206499040126801e-01) (96, 2.77789706619632037476e-01) (97, 5.20597560459965413848e-01) (98, 2.59587343480836341136e-01) (99, -4.24177810249222464467e-01) (100, -1.31616482325076934040e-02) (101, 6.01025523897570024268e-01) (102, 1.07192622954256733259e+00) (103, 1.41843022633401621979e-01) (104, -9.84410812681441038663e-01) (105, -3.45479180972868768484e-02) (106, -7.25662862541028741425e-01) (107, 2.11467085627260242831e-01) (108, 6.92924320689061512546e-01) (109, 7.90308342707880973066e-01) (110, -1.32949875849400567240e+00) (111, 3.93103202804923057556e-02) (112, -9.18482767635687369356e-01) (113, -4.57688431943540696700e-01) (114, -5.96442238806588864719e-01) (115, -1.36584554781446543270e-01) (116, -9.49380049215844845634e-01) (117, 4.80798657976589383090e-01) (118, 7.84921352034345098936e-01) (119, -7.68146213009270328875e-01) (120, -6.34458371323013303744e-01) (121, 1.27211450581681179139e-01) (122, 1.02186810078120982048e+00) (123, 1.89316250284981474339e-01) (124, -7.97644343464174454539e-01) (125, -6.67385859660327818155e-01) (126, -7.11388792614190523800e-01) (127, 4.93122354149818420410e-01) (128, 8.63566065570993246503e-01) (129, 7.14560277169952517973e-01) (130, 1.03796371468211257039e+00) (131, -2.28951494046011366779e-01) (132, -2.02988914140438320155e-01) (133, 8.06622126902280967009e-01) (134, 1.26698873090059760393e+00) (135, 3.80769644526307526888e+00) (136, 2.09166619933286224153e+00) (137, 4.19072324162308107454e-01) (138, 3.36545406422705598026e-02) (139, 9.04938039261822591008e-01) (140, -5.07804526660451949205e-01) (141, -1.96325154690871889196e-01) (142, -5.48828246774821115750e-01) (143, -3.00383620895445346832e-01) (144, 4.47306538997400016805e-03) (145, 3.52244902743408694334e-01) (146, 5.98205070240491409983e-01) (147, -1.26706983953047747082e-01) (148, -2.65224623159104611059e-01) (149, -8.03478381711508427010e-01) (150, -2.13102065131783230401e-01) (151, -5.68806609388773809499e-01) (152, 2.07390939798074519507e-01) (153, 4.24066153652993715895e-01) (154, 1.56579217516359414653e+00) (155, 5.33824897893286576256e-01) (156, 1.98289017125418520759e-01) (157, -6.33754402147532847067e+00) (158, 2.48113944718839657400e-01) (159, -1.09476225450634956360e-01) (160, 6.12160118305785982962e-01) (161, 4.49586280192422360624e-01) (162, 5.93876053643880630339e-01) (163, -8.32070383387017331600e-01) (164, 5.03100522928411619805e-02) (165, 4.94112751066013933254e-01) (166, -9.21010505322455985677e-02) (167, -9.35246252715281389811e-01) (168, 6.15821747265427044127e-01) (169, -1.23222472017451026294e-01) (170, -9.47808743340763149021e-01) (171, -8.74027390401619697080e-01) (172, -1.12932184094504672878e+00) (173, -7.01311950032245068343e+00) (174, 3.47183185221852930180e-01) (175, -2.12702989578247070312e-01) (176, 6.98885154919429152365e-01) (177, 1.40698491316559914921e+00) (178, 3.85170314160231050393e-02) (179, -1.22212684344423005989e+00) (180, -4.48626056740084391827e-02) (181, -6.75455400444831544071e-01) (182, -2.06709045659837359343e-01) (183, -1.57278489533781118404e+00) (184, -1.02440782059085341849e-01) (185, -3.72147824341283628424e-01) (186, 5.91347455904193020082e-01) (187, -7.20438173193924669135e-01) (188, 4.00416742975642669933e+00) (189, -4.95782719218499534630e-01) (190, 4.35743400859707019634e+00) (191, -4.24615093506872653961e-01) (192, 4.53296441705903552233e-01) (0, 3.43972719420309687166e+01) (1, 1.38452587905740731600e+00) (2, 1.99725915147710941788e+00) (3, 3.39763239146832207727e-02) (4, -1.92281909316692156686e+00) (5, 3.93608390343316516535e-01) (6, -3.69363240555376115548e-01) (7, 3.81797591693287252657e-01) (8, 3.29232935971861762070e-01) (9, -1.68293128777812217578e-02) (10, 9.42448595341048578344e-02) (11, 9.00791112609696131841e-01) (12, 1.13541830583908809338e+00) (13, 1.24476224608910324143e+00) (14, 4.74335089885722094305e-01) (15, -3.92899789847433567047e-01) (16, 2.91578425199032160720e+01) (17, 2.16295133880740353405e+00) (18, 7.95987503796202311435e-01) (19, -1.19132215460897791792e-02) (20, -6.10114902576795681277e-01) (21, 2.08145923020256223834e-01) (22, 5.62964397685102313496e-01) (23, 7.36193694090210848380e-01) (24, 1.75988435122491071461e-01) (25, 9.06054323538842854013e-01) (26, -1.35594650791678289492e-01) (27, 5.40602046352935849960e-01) (28, 3.95290894225242384064e-01) (29, 5.36679773703071183455e-01) (30, -4.67695582698198358829e-02) (31, -5.69257932715117931366e-01) (32, 2.77799360838026139220e+01) (33, 4.56470108663324158904e-01) (34, 6.38627594855972202659e-02) (35, -1.83130569470234427776e+00) (36, -8.65112222702021482768e-01) (37, 7.34168613150962157121e-01) (38, 2.01363529300260968302e-01) (39, 6.60609454073608826086e-01) (40, -2.57266900775346030183e-01) (41, -8.23445652556155871515e-01) (42, 3.96503349604479582435e-01) (43, -2.98374646236083174156e-01) (44, -8.14891305791146325355e-01) (45, -4.16951685532999882788e-01) (46, -2.27628742752973156627e+00) (47, 6.34710373356938362122e-01) (48, 2.78812957082182499846e+01) (49, -8.95049514373652127519e-02) (50, 5.66603241146064418032e-01) (51, -4.62073427650468229744e-02) (52, -8.83541589820667327970e-01) (53, 2.47300037340392603324e-01) (54, -2.90374621753204442687e-01) (55, 4.40383317937822427179e-01) (56, 4.90264372309152707263e-01) (57, 2.97834685457887105020e-01) (58, -3.28710166286175553552e-01) (59, -5.34650314066918652678e-01) (60, -7.38606717501921750113e-02) (61, 7.07357096581934907675e-01) (62, -3.62283971353186062814e+00) (63, -1.13355657085776329041e-02) (64, 2.85051113955915305098e+01) (65, 1.02943758513812766431e+00) (66, -1.30404077723200173544e+00) (67, -7.85650707164630424106e-02) (68, 5.99040086196631071935e-01) (69, -8.54072026277179707776e-01) (70, -1.60792303920372164905e-01) (71, -2.54185561907044332841e-01) (72, -2.80810594063486740346e-01) (73, -9.27072457699457896929e-01) (74, -5.56831523341841175267e-02) (75, -5.37792636570079585212e-01) (76, 3.42193882461760100211e-03) (77, -1.07743468111158735567e+00) (78, -3.43410534678778063267e+01) (79, 1.26078872941434383392e-01) (80, 2.83787951518088910063e+01) (81, 8.49806605002775716784e-01) (82, -2.29414252386191819255e+00) (83, -2.98090275456251274644e-01) (84, -1.38403620200423987940e-01) (85, -3.66534643159587725236e-01) (86, -2.15429395193009387555e+00) (87, 1.32237474733111870506e+00) (88, 1.51758059793873023580e+00) (89, 5.49675291209501606926e-02) (90, -7.14432424771199725555e-01) (91, -3.48635781918882947661e-01) (92, -4.02456951298919118898e-01) (93, -1.97098290528707947855e-01) (94, -3.45720806295803200214e+01) (95, 3.86193377897143363953e-01) (96, 2.86508529793709847411e+01) (97, 9.00826702422578562413e-01) (98, -4.73324162451137175900e-01) (99, -7.82347883396494747643e-01) (100, -1.46710492528227792741e-01) (101, 4.00190511239344848260e-01) (102, -5.71521376821629289999e-01) (103, 6.96140755727057469748e-01) (104, 1.01340202661522882366e+00) (105, 1.03413025932390945094e+00) (106, 5.36232916334954956561e-01) (107, -7.12874216352341716352e-01) (108, 8.89738841996709051152e-01) (109, -2.93166673730267335340e-01) (110, -6.01260827584619761410e+01) (111, -3.11557397246360778809e-01) (112, 5.55222271913796117104e+00) (113, 1.28876534440443690777e+00) (114, 7.74451998176042821775e-01) (115, -8.72861546722369707751e-01) (116, 9.57518579442716788463e-01) (117, 1.12113677614499129831e+00) (118, 7.78158573619812998778e-01) (119, 8.71870607848628020875e-01) (120, -3.89539816868700372599e-01) (121, -6.26944657302491492601e-01) (122, -3.12389556296507997502e-01) (123, 9.14293263465630334785e-02) (124, 6.11272133865992661761e-01) (125, -1.37465816652523620256e+00) (126, -1.04366331746798863378e+02) (127, -5.50170342437922954559e-01) (128, 2.20900602433449222417e-01) (129, 1.17818138734968003156e+00) (130, 2.42022804430252064245e-01) (131, 1.16673771725789054976e+00) (132, -6.76098076578593554231e-01) (133, 8.52557336951564104233e-01) (134, -2.27189658572190394947e-02) (135, 6.01834866227255349536e-01) (136, 7.59798646636947627719e-01) (137, -4.85006611076151006312e-01) (138, 7.91447051433398107712e-01) (139, 7.37477209005712341927e-01) (140, 1.29359420309965145179e+00) (141, -5.23393206711622815952e-01) (142, -1.04395915150639524427e+02) (143, 1.37192501686513423920e-01) (144, -3.55856632386727267381e-01) (145, 7.20203718337838836305e+01) (146, 1.61751397382363049093e-01) (147, -3.81922875864663946555e-01) (148, 6.70788164501498807013e-01) (149, 2.10566742102716836227e-01) (150, -6.30962502251219858884e-01) (151, -7.49327333080086144257e-01) (152, 4.81916570800288768250e-01) (153, 3.36331439248957909244e-03) (154, 1.65106098604508061412e-01) (155, -2.55033976437096576717e-01) (156, 1.71010314448592853909e-01) (157, 5.22633840438456176436e-01) (158, -3.48013213595014505586e+01) (159, -4.84703128226101398468e-01) (160, -2.71513453406175941929e-01) (161, 7.03799643776987835508e+01) (162, -2.19384796945392090972e-01) (163, -1.54500150136768321651e-01) (164, -6.49612266147114980619e-01) (165, 7.47115821395836987584e-01) (166, -5.85851567173973797331e-01) (167, -1.69165458022297147955e-02) (168, -7.14105570444794612861e-01) (169, -8.09393949200844842196e-01) (170, 7.70126968310527737493e-01) (171, -6.73537388993629471123e-01) (172, -3.12415207101855822713e-02) (173, -8.24078367731856387124e-01) (174, -3.48168042508524351319e+01) (175, 6.63701568730175495148e-01) (176, -7.47183276993117262421e-01) (177, -4.72506054720942536562e-01) (178, -8.57219236058142763923e-01) (179, 6.57402582806581592401e-01) (180, 5.31983231665771216790e-01) (181, -5.57519383561280501560e-01) (182, 1.04914644691082870054e+00) (183, 6.53825770410340956218e-01) (184, 4.62144436921851531341e-01) (185, 1.47306213251879647430e-01) (186, 8.93985059388475611364e-01) (187, 9.13604902424570819441e-01) (188, -1.27489646767127440263e+00) (189, -8.94823412514214044933e-01) (190, -1.00297668823350605294e+00) (191, 1.22037530876696109772e-01) (192, 3.05477411992722935885e-01) (0, -3.12674048566595441656e+00) (1, -3.82124855579231148539e-01) (2, -8.60046057798283580809e-01) (3, -6.15187534234895916363e-01) (4, -7.59251113066674143681e-01) (5, 4.79986123573208300908e-01) (6, 3.13615590276918931867e-01) (7, -7.63087291682890911382e-01) (8, 4.39275586457277988917e-01) (9, 1.57456360889049373775e+00) (10, 7.52272865872429696843e-01) (11, 9.32410642102263209630e-01) (12, -5.31519694897014338686e-01) (13, -2.50463192508186716090e-01) (14, -9.68228035937753972462e-01) (15, 2.95083345845341682434e-02) (16, -7.91398545157043020737e+00) (17, -1.14830854760984002461e+00) (18, -8.51828409652320317491e-01) (19, 2.46493622202826861978e-01) (20, -6.42681457653831306187e-02) (21, 3.99565952661466661233e-01) (22, -1.89044838349464700000e-01) (23, 9.61499925112152986628e-01) (24, 1.91704651943849113671e-01) (25, 1.17690631876633666764e+00) (26, 1.37859838179504173850e-01) (27, 3.15470160439254510010e+00) (28, -3.29318326888872192626e-01) (29, 5.68588619728601196712e-01) (30, -1.10531486674698239958e-01) (31, -6.48624240420758724213e-01) (32, -7.49527931015817205918e+00) (33, -7.80075696123456729936e-01) (34, -4.66418243340747884496e-01) (35, 6.66141325529715833120e-01) (36, -1.08653952733658432095e+00) (37, -4.56424899151185170521e-01) (38, 7.83885615195377472020e-01) (39, 1.90813207057369760289e-01) (40, -8.18812691065187614470e-01) (41, 3.21379001602381808578e-01) (42, -1.74321080618761531378e-01) (43, 2.21681611395443844970e+00) (44, -4.66461796069570555634e-01) (45, -4.87822528617666950623e-01) (46, -1.07194032471939659779e+00) (47, 6.07768343761563301086e-01) (48, -7.86713460635272543442e+00) (49, -2.83299342538752496612e-01) (50, -1.40359165460794660385e-01) (51, -1.02341415873434282702e+00) (52, -1.05108539842928450092e+00) (53, 6.63539699222476797580e-01) (54, -1.26354347145062617663e+00) (55, -2.93380839496790835064e-01) (56, 2.04673536412800893824e-01) (57, -2.65611033858132172814e-01) (58, -1.99261059735655193803e-01) (59, -8.64170930565576256299e-01) (60, -5.60329139788531382926e-01) (61, -8.05666297567014577652e-01) (62, -1.00047644127686452542e+00) (63, -9.68185522593557834625e-01) (64, -8.46355525672314534802e+00) (65, -1.21384432073616332914e+00) (66, 7.73268793076900773364e-01) (67, -5.10598706034858573766e-01) (68, 9.47404634651577703952e-02) (69, 3.87388314512159492864e-01) (70, -1.04000391928901825267e+00) (71, 2.85788373559215380659e-01) (72, -7.63824184095296537800e-02) (73, -2.83841730425740623733e-01) (74, -6.93320912456216298381e-01) (75, 3.83780070221073854597e-01) (76, -1.36619116596366801941e-01) (77, -2.63811296124139449404e-01) (78, -1.23232849095640495385e+00) (79, -8.74078377149999141693e-01) (80, -7.85245149198798220169e+00) (81, -9.23807266440337837565e-01) (82, -6.76409711955351045098e-01) (83, 2.83199980638679682521e-01) (84, -7.25250795200345188540e-01) (85, -6.86566186736041084160e-01) (86, -7.26280362694237124899e-01) (87, 6.26356590771967369768e-01) (88, 1.13165686104514703891e-01) (89, 2.28864504441025462533e-01) (90, 5.54897133085949678666e-01) (91, 6.49267006970749571693e-01) (92, 2.18354617723717198130e-01) (93, -6.43831838989064153544e-01) (94, -7.20454127198735472248e-01) (95, 8.19199280813336372375e-01) (96, -8.78080060880509982724e+00) (97, 5.72893825195440672959e-02) (98, -4.67884315723116783747e-01) (99, 4.50150169916003872750e-01) (100, 2.37620944926263816255e-01) (101, -3.74231654437441607630e-01) (102, -1.23647779610965138919e-01) (103, -9.39048376939834783528e-01) (104, 4.28631466896369384134e-01) (105, -3.64646751206251090727e-02) (106, 7.40102080656374505807e-01) (107, -5.82133301516967960332e-01) (108, 9.54211649783446191897e-01) (109, -2.00215050504040890933e-02) (110, -9.64194239760742477507e-01) (111, 1.03735501877963542938e-01) (112, -9.39388809750280628919e+00) (113, -2.46296473122208176010e-01) (114, -6.13713953055932681657e-01) (115, 5.99943654872524212429e-01) (116, 3.80592748867633390297e-01) (117, -4.31131459670581362875e-01) (118, -2.86808153362394166463e-02) (119, -2.89507945028779745122e-01) (120, 8.09651081187990895316e-01) (121, -4.86316435815960901312e-01) (122, 1.05239948221480750234e+00) (123, 1.30521511348894291710e-02) (124, 7.20504467646399388014e-02) (125, 9.95994160390349714262e-01) (126, -1.67337833458782037077e+00) (127, 2.88062561303377151489e-01) (128, -7.92737996624840318693e-02) (129, -1.48661784925063433782e+00) (130, -6.00483573593936559298e-01) (131, -6.37886779089760658223e-01) (132, 1.02220255233133960893e+00) (133, 5.66289745143258027582e-01) (134, -6.71194230723113682835e-01) (135, 6.41429639388411798606e-01) (136, -6.10246468519272181052e-02) (137, -9.62555971481682481894e-01) (138, 8.31048823447548712373e-01) (139, 8.98114843151352065798e-02) (140, 1.57201089845191127603e-01) (141, 2.30973504559393166824e-01) (142, -7.94782460874326912581e-01) (143, -8.17360172979533672333e-01) (144, -1.13982354518963199808e-01) (145, -1.56529620117396772727e+00) (146, 5.48149115391855956680e-01) (147, -5.98153191922697002880e-01) (148, -4.40737842169401317083e-01) (149, -6.58114575901233123112e-01) (150, -6.55333164732905482097e-01) (151, -9.01992845765997142138e-01) (152, 2.34392930949171324206e-01) (153, -4.92279232915678488514e-01) (154, 3.60722184080482066726e-01) (155, -3.86537571248231126564e-01) (156, -7.55029738652919557573e-01) (157, -1.24469890529128091039e+00) (158, -8.87730758735662872638e-01) (159, 2.58670543320477008820e-01) (160, 2.65387119535690718664e-01) (161, -3.28667239113599585210e+00) (162, 2.09480360122261649591e-01) (163, 4.43913605765779872847e-01) (164, 1.95463014300445991900e-01) (165, 6.99829995360168322094e-01) (166, -3.62691960206816876866e-01) (167, -7.44465636017072385222e-01) (168, 9.39957688935241786332e-01) (169, -4.99157355616301201540e-01) (170, -3.92753286241339094609e-02) (171, 4.55871865238332840686e-01) (172, -3.13205475568396729535e-01) (173, -5.21115204821639421695e-01) (174, -1.38126672255409399526e+00) (175, 8.04390876553952693939e-01) (176, -5.78629089709036814604e-01) (177, -4.39114452412094546929e+00) (178, -1.15992424580395514511e+00) (179, -4.24093597890271636897e-02) (180, -1.28462357267321847232e+00) (181, -4.27886727639370412213e-01) (182, 3.64079237387116838587e-01) (183, -4.08481430652101962231e-01) (184, 8.70645047339989736068e-02) (185, -2.92270168433500787675e-01) (186, 1.40338205781784269854e-01) (187, 7.81735905484982285252e-01) (188, 2.75772188978936939885e-02) (189, -2.17805637205264107648e-01) (190, -2.44073577947436071156e+00) (191, -7.25510455667972564697e-01) (192, -1.17186592441190479130e-01) (0, -9.60272110821416724491e-01) (1, 6.32376162057594060073e-01) (2, -9.06439642730743178056e-01) (3, -1.54343004592324088003e-02) (4, -2.83728574412747180933e-01) (5, 1.68828202406232169563e-01) (6, 9.51630954229961911750e-01) (7, -6.83339456100985065401e-02) (8, 9.40536711211201637006e-01) (9, 5.92369056245356101487e-02) (10, 8.82322060096269233931e-01) (11, -4.41139046553481795065e-01) (12, 1.04851691852671380367e+00) (13, 3.21995702943263406581e-01) (14, 2.28302358166814378659e-01) (15, -2.96523800119757652283e-01) (16, 4.86276376405202381825e-01) (17, -8.30610100457593203416e-01) (18, -1.68747037822257128781e+00) (19, -1.19712133231419470825e+00) (20, 4.55923859231998351849e-01) (21, -3.20315101791544931675e-01) (22, 2.72372875383868839894e-01) (23, -5.78462193011939129761e-01) (24, 7.96484116854999202317e-01) (25, -1.55324576056042329419e-01) (26, 2.52900810272222997810e-01) (27, -5.21990272824827128417e-01) (28, 2.33883104975549704907e-01) (29, 4.00584646475451833236e-01) (30, 4.29723168078301909212e-01) (31, 3.28474324196577072144e-01) (32, 1.18325757206820481038e-01) (33, -8.02320649069495184236e-01) (34, 3.35240863832509256026e-02) (35, 1.11668166277961236621e-01) (36, -6.44894911791924707600e-01) (37, -5.90020422066645303105e-02) (38, -5.28234025464639267433e-01) (39, -8.68438944721928590686e-02) (40, 5.88917303382227141917e-01) (41, -6.89397942125899887422e-01) (42, 2.94088939338727040074e-01) (43, 8.34780276788497865859e-01) (44, 7.79648896620253273326e-01) (45, -6.40744423241486948939e-01) (46, -3.73462288448703938482e-01) (47, 3.96175089292228221893e-01) (48, -4.93547480209327982248e-01) (49, -4.99678517300075952789e-01) (50, 5.06334179613683321719e-01) (51, -1.39842467316870977534e+00) (52, -7.13663433026323179575e-01) (53, -5.15321998123516866741e-01) (54, -1.26088938719742249539e+00) (55, -2.70215363100165389953e-02) (56, 6.08667675813579389654e-01) (57, 1.01434288427726504445e+00) (58, 4.10829217945957170244e-01) (59, 2.34993060490447908117e-01) (60, 5.58124837176556476415e-01) (61, -2.73726497133254087490e-01) (62, -8.73568704178222854573e-01) (63, -3.61628010869026184082e-01) (64, -3.05347336112118949991e-01) (65, 9.61433235984704287480e-02) (66, -7.92547348669541240618e-01) (67, 5.04562150612097748414e-01) (68, -6.53329842061708410128e-01) (69, -3.35642598484948984083e-01) (70, -3.00635136008342684910e-01) (71, -6.81972401694923902049e-01) (72, 2.86909991804363329049e-01) (73, 1.00565210525645554185e+00) (74, -9.61845638129103730485e-01) (75, -1.07120474313379399067e-01) (76, -9.20007434082600661363e-01) (77, -1.52588724540672493468e+00) (78, -7.87111317416574030048e-01) (79, -5.50938816741108894348e-02) (80, 1.16388660268329613423e-01) (81, 6.64050986660685071961e-01) (82, 1.90870155698674576206e-01) (83, -7.96942417210223186252e-01) (84, -1.13856259470187293203e-01) (85, 6.98147277574416857959e-01) (86, 4.20271782956000539144e-01) (87, -2.81346085796897404929e-01) (88, 9.60986126557310083030e-01) (89, -2.12262539363774760393e-01) (90, -3.20850688663402827672e-01) (91, -4.98402424577435304576e-02) (92, -1.96739223216546334216e-02) (93, -1.03457290070497198720e+00) (94, 6.77147731507276029461e-01) (95, -7.38638130947947502136e-01) (96, -5.66935673943318008128e-01) (97, -7.92701021477649314662e-01) (98, -1.10487574689491707680e+00) (99, -2.53347561439026980334e-01) (100, -1.77065243630942892317e-01) (101, -5.80190754835854916038e-01) (102, 4.65635288688540427415e-01) (103, 1.23311812355506367211e+00) (104, -1.00343502705533896280e-01) (105, 2.15798423710856862590e-01) (106, -1.79073971796346681495e-01) (107, -5.39691334382805254499e-02) (108, 8.02108895890981443699e-01) (109, 2.54629103165939559700e-03) (110, 8.99156504389075572625e-01) (111, 1.76571635529398918152e-02) (112, 6.26488904222382236853e-01) (113, 1.81379617983599167319e-01) (114, 2.40654825738805033808e-01) (115, 8.88266953491714805757e-01) (116, -1.15604355148563583966e-01) (117, -1.70815909000840121523e-01) (118, -7.32064197918454673264e-01) (119, -2.80511518053731034872e-01) (120, 1.16654184621361323160e+00) (121, 2.69089376150418613243e-01) (122, 8.66819625110207714336e-01) (123, 4.00044405817571377404e-02) (124, -4.43384128387488252176e-01) (125, -5.89259156808862760712e-01) (126, 2.09386365035776733645e-01) (127, -6.06621019542217254639e-02) (128, 9.74138199666472193172e-01) (129, 2.73134558826312934254e-01) (130, 6.95146284346761733630e-01) (131, -2.78407353244463640074e-01) (132, 1.11659114624860955622e+00) (133, -4.85935272845129176411e-02) (134, -2.11715333681595563320e-01) (135, -4.12557624385239907205e-01) (136, -9.17351895590006960468e-01) (137, 2.56311587002587326634e-01) (138, 3.10876016371101793201e-01) (139, 1.07439901492368505842e+00) (140, -5.68069365975125625812e-02) (141, 3.98219604727265030775e-01) (142, -1.30352513385708551619e-01) (143, 9.67986200936138629913e-01) (144, -8.36390039530078427399e-02) (145, -6.43418697275593309826e-01) (146, 8.63408624035345573233e-01) (147, 7.50768244269105267108e-01) (148, 2.63256250315125839290e-01) (149, -7.67868518700453472903e-01) (150, -7.39028636203603150889e-01) (151, -2.31107950295597969204e-01) (152, 2.93735115139740265988e-01) (153, -1.05074281564059779370e+00) (154, 9.07754670097050131439e-01) (155, 1.60172745103552327528e+00) (156, 1.42391706099358561488e+00) (157, 1.42248487187294020417e-01) (158, 1.98375040718890858216e+01) (159, 3.73035036958754062653e-01) (160, -2.48701596780438766165e-01) (161, -3.57858322224043901016e-01) (162, 8.92386323633869715799e-01) (163, -4.91466239763262313645e-01) (164, 4.94056185294216743120e-01) (165, -5.39705545340393055831e-01) (166, 6.21437800735407386288e-02) (167, 5.40396220344884103959e-01) (168, -1.10286881301647277098e+00) (169, -4.44137279298009168826e-01) (170, 5.62215599091325679559e-01) (171, -1.17408348814725990716e-01) (172, 1.57700218373920814097e-01) (173, -3.98628458851636502391e-01) (174, 1.98715193744354081673e+01) (175, -1.58062489703297615051e-01) (176, 2.12443096415381088571e-01) (177, -5.41783285742258174933e-02) (178, -5.35413836724750846763e-01) (179, -8.20928464628020493343e-01) (180, -3.27416710240441999336e-01) (181, -3.57262275450584476655e-01) (182, -4.98308267741583016397e-02) (183, -8.87676407292143809791e-01) (184, -3.76167276949033624334e-01) (185, -2.61004900756979130172e-01) (186, 9.11617524436885151573e-01) (187, 8.14731160286226163691e-01) (188, 1.54875009637465876899e+00) (189, -6.91528596682745577695e-01) (190, 4.99960894806017819292e+01) (191, -5.22512862458825111389e-01) (192, 2.15744178696527316719e-01) (0, 9.07349717510332993697e+02) (1, 4.49392312188542197848e-01) (2, -2.60352478021271549480e+00) (3, -7.75574152083118861789e-01) (4, -1.13427377476655122379e+00) (5, -8.00280132114745246241e-01) (6, -1.01705234846791392478e+00) (7, -3.94644438172260636488e-01) (8, 9.09859382112512604657e-01) (9, -6.75675393161500898592e-03) (10, -5.71091294088375001081e-01) (11, -2.09265851934622482133e+00) (12, 8.17751170738224897327e-01) (13, -2.25332705277641626163e-01) (14, 7.58102728731931629902e-01) (15, -6.10060608945786952972e-01) (16, 7.01675494776094694771e+01) (17, 1.03730752410246052087e+00) (18, 2.99816588457890664809e-01) (19, -2.25437852016673989652e-01) (20, -8.33111281841415585170e-01) (21, 1.83834327403402775225e-01) (22, 3.78786327744800033201e-01) (23, 1.76161789140210800486e-01) (24, 1.84484829271675199180e-01) (25, 7.93104928394118058321e-01) (26, 4.14381921701221067611e-01) (27, 8.98445952170064621178e-01) (28, 5.38364640121018478425e-01) (29, -5.40594956426146189266e-01) (30, 2.19443041029134977560e-01) (31, 1.66453643701970577240e-01) (32, 7.07234028919587274231e+01) (33, 1.40285046897935306021e+00) (34, 1.43890524029381461357e-01) (35, 1.15225723077395136862e+00) (36, 1.80395358220929624693e+00) (37, 5.32439455275874995444e-01) (38, 3.76790991180559087237e-01) (39, 4.73499834322715085211e-01) (40, -8.81326775076572865864e-01) (41, -5.36916526556756923405e-01) (42, -5.34990772193808417079e-01) (43, 1.21716747301208205734e+00) (44, -8.93644270948261487675e-01) (45, 1.25378423144413497781e-01) (46, -8.11278380273667970579e-02) (47, -7.33959698118269443512e-01) (48, 7.08622631576830883660e+01) (49, 2.40996457714334333389e+00) (50, 1.43692834512179318240e-01) (51, 3.44761240524550816033e+00) (52, 1.46798330639150553800e+00) (53, -4.02119021753641447958e-01) (54, -3.26492340664488789326e-01) (55, -1.09068904928721321923e+00) (56, -1.12428903275900005099e+00) (57, 7.00685375966307200102e-01) (58, 1.18160442550774935633e+00) (59, 7.18057102700777050153e-01) (60, 7.05510896497479667033e-01) (61, -1.58030534322950860782e-01) (62, -6.91415891900335033426e-01) (63, -6.12844120711088180542e-01) (64, 7.05519692000920315422e+01) (65, 1.17360783520343781028e+00) (66, 1.01095021852311983679e+00) (67, 8.50633702570739380633e+00) (68, 2.11113372167990620554e+00) (69, -5.42893483634135032290e-01) (70, -1.06900686792493404553e+00) (71, -8.43309777600456889068e-01) (72, -1.68573986555366761575e-01) (73, -7.89532759472197365191e-01) (74, -4.27169677234103428720e-01) (75, -1.37060472302250602183e+00) (76, 6.66368914254350297455e-01) (77, -1.06357559727733153032e+00) (78, -2.96913504225018254346e+00) (79, -6.46238143555819988251e-01) (80, 7.08263033430079360642e+01) (81, 2.24351548088249197477e-01) (82, 6.61120865045187189324e-01) (83, 1.49384655569234396921e+01) (84, 8.81596886692355002912e-02) (85, -5.83356488108772164303e-01) (86, 1.09602313423171704443e+00) (87, 1.16899195171125347414e-01) (88, -8.02187052391760135883e-01) (89, 9.98278299433463578438e-01) (90, 8.49864113717512525970e-02) (91, 1.21748346314713096206e+00) (92, 1.59546909222078897583e-01) (93, -1.86628349405128984850e-01) (94, -4.00083289013060472428e+00) (95, 4.20821610838174819946e-01) (96, 7.01985763802180429138e+01) (97, 8.56122309943010293409e+01) (98, 9.76107964987190102057e-01) (99, 1.76980878368005392076e+01) (100, -1.52624897180081697812e+00) (101, 1.03251216571894954832e+00) (102, -6.16377868388500615993e-01) (103, -7.47760344835662477125e-02) (104, 3.29719715339838237433e-01) (105, -1.13702451402253615353e-01) (106, 1.16951542504750238827e+00) (107, 8.23514186398218273055e-01) (108, 3.31209312124839128089e+00) (109, 1.26824863439686019717e-01) (110, -2.22473083502421253854e+00) (111, -3.66596118547022342682e-01) (112, 1.70948242210801168994e+01) (113, 1.03285038753456026583e+00) (114, 2.11493532988302945341e+02) (115, 3.00157319762600349744e-01) (116, 8.87090736437161409000e-01) (117, -4.50640114301560923415e-01) (118, 8.14202695358702932538e-01) (119, -6.54074218004363938661e-01) (120, -9.36713010608014817748e-01) (121, -8.10047681273682040892e-02) (122, -8.34417739899020904915e-01) (123, 5.18630142277660022287e-01) (124, -6.04416379735796205352e-01) (125, -7.85423481958432034844e-01) (126, 4.06432952675073788651e-01) (127, -3.12805517576634883881e-01) (128, 1.18068275199222072480e+00) (129, -6.28364804710863422699e-01) (130, 3.24389197780469151766e+00) (131, 7.38888784076225602071e-01) (132, -7.55692338502710003745e-01) (133, -1.01446278440878917548e-01) (134, -4.37463900712320274966e-01) (135, -8.24683584496571642219e-01) (136, 6.43248572056756895421e-01) (137, -2.36101579425772506449e-01) (138, -7.65347859959864651458e-01) (139, 7.41214245851829933720e-01) (140, 9.94315582455701618692e-01) (141, -9.78392706956134117213e-01) (142, -1.56984199826569026381e-01) (143, 6.17017040960490703583e-01) (144, 1.31499155756809527063e+00) (145, -5.75199345058816202680e-01) (146, 4.29504572657615421583e-02) (147, 8.15877687106185356392e-01) (148, 1.19720219036082584085e-01) (149, 1.63521403465652537257e+00) (150, 8.61448231251444762613e-01) (151, 3.27377377897264121298e-02) (152, -6.01906820131969055865e-01) (153, 8.19272784388920038978e-01) (154, -3.36823169167804248314e-01) (155, 2.70368454343895836534e-02) (156, -1.04003372360249035644e+00) (157, 2.88678790220786643528e-02) (158, 6.09476236637741863866e-01) (159, 8.75320178456604480743e-01) (160, 1.37860957411068185685e+00) (161, -6.15611283815584275914e-01) (162, 5.87602780860683626685e-01) (163, -4.51629483341581372535e-01) (164, 1.69005927005134393148e-01) (165, -5.64426723304851440943e-01) (166, 1.01419210666798237375e-01) (167, -1.24311420342972517306e-01) (168, -4.74187422599328528561e-02) (169, 8.60405529613267466837e-02) (170, -5.23670862691589800164e-01) (171, -2.75585913761099629560e-02) (172, -7.53986578594769696338e-02) (173, -9.57597967583333709030e-01) (174, -4.61411043990343161525e-01) (175, -1.67924590408802032471e-01) (176, 5.53026715004320323921e-01) (177, -2.73616309063785134725e+00) (178, -1.04720131009080974493e+00) (179, -8.96683614867951117589e-01) (180, -3.59535712577735144801e-01) (181, -7.06368308776987308129e-01) (182, 7.85320986557519140625e-01) (183, -1.86554484318715546598e-01) (184, -1.03215829976536244139e+00) (185, -6.69254999167618103151e-01) (186, 8.65912128911672129838e-01) (187, -8.29219833087156077411e-01) (188, -3.66453363712461455126e-01) (189, -5.49130591675868307000e-01) (190, -2.59312550779053418992e+00) (191, 6.42825536429882049561e-01) (192, 5.87183975684420378371e-01) (0, 9.73755393194683072089e-01) (1, 1.09537155218619411401e-01) (2, 9.54254544046876929109e-02) (3, 8.47762987748095442342e-01) (4, -5.80301671695716336785e-01) (5, 5.34770731943388755170e-01) (6, -1.72600509558760872864e+00) (7, -2.65426560540357492357e+00) (8, -2.52729745400221261775e+00) (9, -9.34197353133151331406e-01) (10, -5.00593822052700199166e-01) (11, -5.37056897893818163681e-01) (12, -1.03652344230139559222e+00) (13, -2.89646036506706039404e+00) (14, 7.23883871326650218947e-01) (15, -6.10686223953962326050e-02) (16, -4.20223276417402646921e-01) (17, 1.95458655942895753732e+00) (18, -7.36270039405628295981e-01) (19, -6.62397102431836248826e-01) (20, -9.53354933509210911158e-02) (21, -8.74013640900179966664e-01) (22, -2.39196470059560306609e+00) (23, -8.95286171658523532990e-01) (24, -2.63812846215162544183e+00) (25, -1.82418945068709081880e+00) (26, 1.01010878537114698328e-01) (27, 3.71472305334237140606e-01) (28, -4.57305728597059812923e-01) (29, -3.05561658268893676649e+00) (30, 1.02347374437571025929e-01) (31, -4.79620227590203285217e-01) (32, 2.33554684270473073004e-01) (33, 1.22101710693434384325e+00) (34, -3.68501947311734578960e+00) (35, -1.10520359525787537081e+00) (36, 1.28746106654583775120e-01) (37, 3.40689483604112997028e-01) (38, -8.26767558738867425205e-01) (39, -3.01967738550195208269e-01) (40, -8.80198735294159262388e-01) (41, 1.02990400007127780313e-01) (42, -1.16209604294572388383e+00) (43, 2.27335059611315143391e-01) (44, 3.14168863809554443911e-01) (45, 7.18956979650366978518e-01) (46, -1.55513380117762456400e+00) (47, -9.46520096622407436371e-01) (48, 9.37760918114633801324e-01) (49, 1.01627630637432453398e+00) (50, -3.44485011198155977041e+00) (51, 1.06795221828611536230e-01) (52, 7.93926014996299223014e-01) (53, 4.84611901711342940580e-01) (54, 7.10016591093262650070e-02) (55, 8.61265687005533409071e-01) (56, -1.88286387355573858748e+00) (57, -2.12817210183670058044e+00) (58, 3.08065838072763276134e-01) (59, 4.39824948944128268913e-01) (60, 6.05462665278167500027e-01) (61, -1.37582783553900966922e+00) (62, -1.54201254478265159520e-01) (63, -1.47370283491909503937e-01) (64, -8.22037739034442771491e-01) (65, -3.76634261911927559208e-01) (66, -1.26759709916295260079e-01) (67, 6.83736724211460478173e-01) (68, 5.52075759348375050273e-01) (69, 3.67896342837117362734e-01) (70, 3.31243078012309233316e-01) (71, -8.51561490644397900418e-01) (72, -6.47636213080315603641e-01) (73, -2.58919128983518431752e-01) (74, 5.60986157488198911025e-01) (75, -8.84875334913512778812e-01) (76, -1.28227465528902784264e+00) (77, -1.42586660060995273902e+00) (78, -1.14553746238647424782e+00) (79, 3.11978437006473541260e-01) (80, 9.92820798132868387320e-01) (81, 5.27027738870860407161e-01) (82, -3.67022357086248474101e-01) (83, 8.65677696595005707891e-01) (84, -3.31309868807838858729e-01) (85, 7.83155603346467610315e-01) (86, 8.01376963454351609606e-01) (87, -3.76599129832117962557e-01) (88, -4.60820104931695695427e+00) (89, -1.73044108592877249331e-01) (90, -1.07569009415488525683e+00) (91, -1.24187220000461429059e+00) (92, 3.49736931650063309629e-01) (93, 9.79610045103535331812e-01) (94, -6.10890915918335775103e-01) (95, 5.57667274959385395050e-01) (96, -7.50983657601921428260e-01) (97, 1.90441257190183477199e+00) (98, -4.54926761664048606715e-01) (99, 6.88280352238123005471e-01) (100, 8.55649629552847207359e-02) (101, -6.78270761304498703836e-01) (102, -8.82106918153969576935e-01) (103, 6.24663694116383338972e-01) (104, -4.63910163596762270544e+00) (105, -1.07815500950199294472e+00) (106, -9.23308836423480161493e-01) (107, 3.16822952172584382247e-01) (108, -7.61694995669258023696e-01) (109, -5.30042997018802197751e-01) (110, -1.47202203907919293435e+00) (111, -6.36626353487372398376e-01) (112, 1.57841698718989276173e+00) (113, 1.05100090253759659298e+00) (114, -8.12379634362042968299e-01) (115, -7.43488997635819437448e-01) (116, 9.92432179990318519280e-02) (117, -1.05482154017945584101e+00) (118, -9.87118828412543031225e-02) (119, -1.21554875067741852135e+00) (120, -1.48919250477470277438e+00) (121, 3.10023657272131492046e-01) (122, 3.43027079411462099134e-01) (123, -3.90819790405267708522e-01) (124, 8.10430063975277475974e-02) (125, -8.18427850631756270694e-01) (126, -2.03553826636742929423e+00) (127, 5.60696979984641075134e-01) (128, 3.63923114250556178906e-01) (129, 9.68341425816570833263e+00) (130, 3.21883102556489053558e-01) (131, 3.45020584007665831461e-01) (132, 9.13402209379521767829e-01) (133, 9.00651079041861146735e-01) (134, -2.99451120660684383390e-02) (135, -1.22278667634646187601e+00) (136, -7.56160128808571130321e+00) (137, 2.81013155747932896755e-01) (138, -2.16225235634567164444e-01) (139, -1.01079774167460700873e+00) (140, 8.76937306140706751556e-01) (141, 1.10570885200451871078e-01) (142, -1.70464666928272867708e+00) (143, 6.20240057818591594696e-01) (144, 1.09216416020984974367e+00) (145, 9.02683605535804467479e+00) (146, 7.82735911637656656126e-01) (147, 5.21005324453414853103e-01) (148, -2.43188673149983519695e-01) (149, -2.33530926869981642069e-01) (150, -2.36686433956543013091e-01) (151, -6.16486404551899891402e+00) (152, -1.53644291287559986436e+00) (153, -4.03715918598206491286e-01) (154, -3.01007773779428444705e-01) (155, 8.45696782476875075218e-01) (156, -2.99574976979650534070e-02) (157, -3.65347369146291733877e-01) (158, -2.49049556459933096875e-01) (159, 1.86616919934749603271e-01) (160, 4.35734886202171378677e-01) (161, 8.95232273786302634733e+00) (162, -1.69813246547625928962e+00) (163, -1.74009449607971689034e+00) (164, -8.71575801078841805314e-01) (165, 3.40724575772025251030e-01) (166, 6.83294319765976182479e-02) (167, 2.86369000222297553915e-01) (168, -3.40998564387013577970e-02) (169, -3.88481885989019115613e-01) (170, -8.83079577331694620668e-01) (171, -9.90100407710948482443e-02) (172, -8.49491592620433344507e+00) (173, -8.04117980123881914700e-01) (174, -8.93249010685533195719e-01) (175, 2.13557074777781963348e-01) (176, 1.59744321134980005183e+00) (177, -7.77349409876928132412e-01) (178, -9.36461366200369016433e-01) (179, -4.31085763882471439956e+00) (180, 7.46638956334273795612e-01) (181, -8.54254509117610361102e-01) (182, -1.15784688663241897011e+00) (183, -1.40662512660753824534e+00) (184, -4.61571213306077240968e-02) (185, -1.00898999573370132254e-01) (186, -9.26101835025194386475e-01) (187, -1.16407878999833336309e+00) (188, 1.64039858993317105851e-01) (189, 2.18178951809665483408e-01) (190, -4.19793976349959478966e+01) (191, -9.87974982708692550659e-01) (192, -1.21580662415174911573e+00) (0, -4.55452706453552647048e+00) (1, -1.32186960637604766777e-01) (2, -9.45469018976923397668e-02) (3, 8.40351719420851184239e-01) (4, 8.77441200708948709774e-01) (5, -5.96327082644835582137e-01) (6, -6.05298938640392442112e-02) (7, -3.45004788682248986209e-01) (8, -3.58247928916523794562e-01) (9, -7.59075770852500997243e-01) (10, -3.08043020258813894652e-02) (11, 6.66286118910249247627e-01) (12, -5.29838942875912155550e-01) (13, 4.79372125265693449503e-01) (14, -5.81685186440813017938e-01) (15, 5.04609472118318080902e-01) (16, -7.83372336673589497735e+00) (17, 5.55055382452870116339e-01) (18, 2.92047864300461701426e-01) (19, 5.43157730553212703128e-01) (20, 5.09433576638755741817e-02) (21, 5.77321931806517585350e-01) (22, 8.53207793323347563064e-03) (23, 1.08225629225577213433e+00) (24, 7.11192350665874606364e-01) (25, 2.61703468184661169893e-01) (26, 7.29606108947694065314e-01) (27, 2.01225245695967530635e-01) (28, -7.10136776148656112539e-01) (29, -1.34437603220200818654e+00) (30, -3.40701813188124802423e+00) (31, -6.07095151208341121674e-01) (32, -7.26107509109230786493e+00) (33, 1.89983917214141606600e+00) (34, -1.58252005734190714925e+00) (35, 4.52781679607871689885e-01) (36, -7.97918853549927642455e-01) (37, -1.82675035442919873885e-02) (38, 8.74482629966911062525e-01) (39, -1.30288943039254700995e-01) (40, 2.66447315354643343710e+00) (41, 5.07050204892146721969e-02) (42, 7.54556272214298329182e-01) (43, 1.01866033127180721785e+00) (44, -4.46503914822168834764e-01) (45, -1.77116314229223248411e+00) (46, 6.29063849723735191155e-01) (47, 7.25767152383923530579e-01) (48, -8.10220298125447691007e+00) (49, 8.26870974154933491285e-01) (50, 4.81608434553864039884e-02) (51, 8.40137725031161797240e-01) (52, -8.63581175294526715014e-01) (53, -7.92382078252471200308e-01) (54, 9.06707917417630460122e-01) (55, 2.06311396973943672606e+00) (56, 2.32339313057534330165e-01) (57, 3.36358538185246525032e+00) (58, -3.25360516543363176289e-01) (59, 6.92026331732235266969e-01) (60, -5.78073736997129564164e-02) (61, -1.87701704260560986448e+00) (62, -7.54894854927399827638e-02) (63, -3.20342751219868659973e-01) (64, -7.24311070564242154290e+00) (65, -2.39450131770217372607e-01) (66, -1.67415223713005678619e+00) (67, 6.94254796877254887200e-01) (68, 2.11614775595503706862e-01) (69, -9.74794210611721223536e-01) (70, -5.42801162108919710292e-01) (71, -5.07594786355671234723e-01) (72, 2.46548079173430412236e-01) (73, 2.15972124149003485982e+00) (74, -9.21418478233975712932e-01) (75, -5.58108343560717104492e-02) (76, 8.90618570035020984399e-01) (77, -2.92360230203677629035e-01) (78, 9.79896977333521101983e-01) (79, -1.49162673391401767731e-01) (80, -8.88602295937987030072e+00) (81, 7.61710714421328788371e-02) (82, -1.55685448971597595325e+00) (83, -9.02714892386759615306e-01) (84, -4.11241870651582186458e-01) (85, -6.19973643556787079589e-01) (86, 8.86075956414788090676e-01) (87, 5.91193399402830110922e-01) (88, 6.23895562473511855472e-01) (89, -5.75851195031439888616e-01) (90, 9.05948601668657704789e-02) (91, -4.26330356100284080245e-01) (92, -5.41247711770827311106e-01) (93, -1.09400502307254315904e-02) (94, 1.37590717130730122442e+00) (95, -7.44890256784856319427e-01) (96, -7.39299217007162123849e+00) (97, 1.08440545954796085937e+00) (98, -1.16246871658212924672e+00) (99, -3.52767551655052857829e-01) (100, 7.52346905067104110287e-01) (101, -6.69685505135212855166e-01) (102, -2.35905343120613814056e-01) (103, -9.72401525752579209971e-01) (104, -1.50788489136642844812e+00) (105, -2.98287370982886934634e-01) (106, 2.56871439027901604657e-01) (107, -9.25216351042822293671e-01) (108, -5.86635352236390072989e-01) (109, -8.94541334733577886418e-01) (110, 1.07116390539870853793e+00) (111, -5.73336114175617694855e-01) (112, -9.71936872248206995550e+00) (113, 1.56802631182772689300e+00) (114, -4.77193781977833020314e-01) (115, 2.07936969862197368331e-01) (116, -8.88813726804877357601e-01) (117, -3.16243251195298502587e-01) (118, 8.96024602834992189848e-01) (119, 9.78597667521142522418e-01) (120, 1.27219850032588510658e-01) (121, -6.36770937910052792219e-01) (122, -3.97800920100178312389e-01) (123, 6.45478730280604318104e-01) (124, 1.05094881130643291733e+00) (125, 5.96639516046569617913e-01) (126, 8.82022089282040955283e-01) (127, 2.42339986376464366913e-01) (128, 3.11361186244326973438e-02) (129, 1.27493617212182086540e+00) (130, 8.66589893817521161878e-01) (131, -2.09008549264776716248e-01) (132, -9.90980233119818421095e-01) (133, 2.58462683348422254948e-02) (134, 7.89387050543078783171e-01) (135, 1.01393993620960827684e+02) (136, 3.11219728459271216536e+00) (137, -9.13018742517999673655e-05) (138, -3.99151904649824362803e-01) (139, -7.90804074483219543446e-01) (140, 3.40649951098643377634e-01) (141, 5.93929910674443775065e+01) (142, -3.43976805960769072001e-01) (143, 6.82924877852201461792e-01) (144, -4.05984760551955925489e-01) (145, -4.14575594466176369224e+01) (146, -1.54130262610922830202e-01) (147, 4.40427135005778333521e-02) (148, 5.66196003910720335739e-01) (149, 5.81222409023765762548e-01) (150, -3.32173359642496679456e+00) (151, -7.13508480376616649465e+00) (152, -8.19267178326194556170e-01) (153, 5.07356768556230020017e-01) (154, 9.08091043992451552036e-01) (155, 9.02099450259868596014e-01) (156, 5.13665640654230704065e-01) (157, 1.78898887346960355771e+00) (158, 1.90666897504165967803e+03) (159, -3.56564755551517009735e-01) (160, -1.59478532259037686369e-01) (161, -4.15510570485098398308e+01) (162, 4.00510885797390525642e-01) (163, 2.97113913336582213809e-01) (164, 7.99785638771302598293e-01) (165, -1.95644255323750460018e-01) (166, 6.47098499178967889733e-01) (167, 5.70149421365620967528e-01) (168, 2.82565662723175348159e-01) (169, 9.94667338044913917905e-01) (170, 6.25620384057554823620e-01) (171, -8.35237233169624726514e-01) (172, -4.25763950318355177682e-01) (173, 1.87909641234086355333e+00) (174, 1.90744792036753347020e+03) (175, -7.45390396565198898315e-01) (176, -3.98115222450962258360e-01) (177, -6.11482506498621569690e-01) (178, 3.83635865633523920337e-01) (179, -4.30711258057471457761e-01) (180, -3.64413403118502010614e-01) (181, -5.60005575425279400470e-01) (182, 2.69508680065420926086e-02) (183, -3.35560950267929869462e-01) (184, 8.22477399457387070569e-01) (185, -1.01898619136241597172e-01) (186, -3.56655645658514930396e-01) (187, -2.96384979699357897776e-01) (188, 1.13799299054705449485e+00) (189, 2.79070284270971469276e-01) (190, 2.93805018815327834147e+01) (191, 6.02599118836224079132e-01) (192, -7.00301040414035513848e-01) (0, -1.00639729092991805914e-01) (1, -9.52858221761664903049e-01) (2, 1.46609851332062790519e+00) (3, 3.04562788984454602126e-01) (4, -9.53951022636077450301e-01) (5, 8.32413788286385236681e-02) (6, -2.45779039821962252965e-01) (7, -9.05270707073599467662e-01) (8, -3.38596888085018976611e-01) (9, -2.08934422816011267088e-01) (10, 3.43164470755881467756e-01) (11, -3.52455154235801482177e-01) (12, -1.18448543347723989072e+00) (13, -2.01402582794502338359e+00) (14, 5.67212860372048099933e-01) (15, 4.43020150996744632721e-01) (16, -4.69896238893549728077e-02) (17, -1.45601657223679792352e+00) (18, 8.44254142959750653041e-01) (19, -3.87783822507005604407e-01) (20, -2.25444669295261523878e-01) (21, -4.34706517689985094677e+00) (22, -1.02682673094828605387e-01) (23, -1.04641492316901474346e+00) (24, -3.26582083920401278210e-01) (25, -1.13577509148283950502e+00) (26, -9.27140237676176814929e-01) (27, -1.20343167879273749143e+00) (28, 2.75685793776218490692e-01) (29, 1.10263316549877143924e-01) (30, -2.36851178555610353271e+00) (31, -2.36976939253509044647e-01) (32, -2.47804462410537440498e-01) (33, -1.77845002923208816981e+00) (34, -1.39466435216320205903e+00) (35, -8.79503220638525595731e-01) (36, 1.18721497280561055776e-01) (37, -3.39134849326698661898e+00) (38, 3.69018775295244239043e-01) (39, -8.03921194930200089246e-01) (40, -8.58255962487344703504e-01) (41, -4.68536490293527574380e+00) (42, -2.08794107136442197437e-01) (43, -1.54326349893541714398e-01) (44, -9.12618305555232156578e-01) (45, -3.72565448854953285007e+00) (46, -1.94437831554019791014e+00) (47, 8.79169274121522903442e-01) (48, 4.72819581195684346397e-01) (49, -1.41523447132908208879e+00) (50, -6.02575397201067120001e-01) (51, -1.08034476838429238654e+00) (52, -2.24845630143255786892e-01) (53, -4.45099885800042560646e+00) (54, -7.76257313118741132385e-01) (55, -7.89453929424559053274e-01) (56, -9.05207071397054918727e-01) (57, 2.03065357228115417332e-01) (58, -2.93304813175303458195e+00) (59, 5.11666608938922906624e-01) (60, -1.53795624619048720838e-01) (61, -4.73688152187613553679e+00) (62, -4.95172618547216114582e-01) (63, -7.24141247570514678955e-01) (64, -6.83118817828623936528e-01) (65, -8.09303823968274493872e-01) (66, 5.53830825987522312737e-01) (67, -1.29065290073575344998e+00) (68, -4.08901716515010527075e+00) (69, -3.63770889442996647745e+00) (70, -6.50269258568948860244e+00) (71, -7.85405517376704165322e-01) (72, -1.21242562670365505717e+00) (73, -2.97712643043287350508e+00) (74, -5.53545773998027623719e+00) (75, -4.95570582328460673693e+00) (76, -4.91140562549797010661e+00) (77, -4.06776739207310900071e+00) (78, -4.55709506960107424423e-01) (79, -3.03266840055584907532e-01) (80, 4.57372244015308293541e-01) (81, -1.93357081746230874408e+00) (82, 5.73758908392379196606e-01) (83, -9.66988140121501138502e-01) (84, -4.27663980967691159663e+00) (85, -4.23560803459333357068e+00) (86, -1.32656438246345231846e+00) (87, -5.22702012973896934511e+00) (88, -6.63129284526012607870e+00) (89, -5.68294527505444246884e+00) (90, -4.83070181752779692630e+00) (91, -4.43938013475359394278e+00) (92, -5.04990174384564660670e+00) (93, 2.90375868157310423889e-01) (94, 3.50047720393644457015e-01) (95, 1.16206853650510311127e-01) (96, -2.71742877982584674079e-01) (97, -8.54122749689645410776e-01) (98, -5.52141937850804342958e-01) (99, -5.24030666905527020560e-01) (100, -4.45187008110778315029e+00) (101, -3.18502454740976936876e+00) (102, -8.58528280798945719887e-01) (103, -6.25892996938576118282e+00) (104, -4.41227654993759887958e+00) (105, -4.57964485954741196139e+00) (106, -3.96786818242694305781e+00) (107, -5.47628698298818994417e-01) (108, -1.07532090694261417418e+00) (109, -5.99661141731685720657e-01) (110, 4.48690138403444016557e-01) (111, 7.63387707062065601349e-01) (112, -2.19671972709438834137e-01) (113, -1.41121230126490160295e+00) (114, -1.57840612189260820486e+00) (115, -6.10759960316912819955e-01) (116, -3.77517857184312610741e+00) (117, -7.94279529570046993747e-01) (118, -1.26152659173902192968e+00) (119, -4.08978437642846193167e-01) (120, -2.57680718702152375954e+02) (121, -4.42843375044032327992e+00) (122, -3.74721340863495111506e+00) (123, -1.12857408448959750658e+00) (124, -1.21102518383464419216e+00) (125, -3.09926519772499242666e-01) (126, -1.79256546158894877863e+02) (127, 4.07077751122415065765e-01) (128, -1.57016293635716741584e+00) (129, -2.06071760599224740318e+00) (130, -5.26715248198756813558e-01) (131, -3.15545809894372597526e+00) (132, -1.47999299777831883063e+00) (133, 5.08600325363751437635e-01) (134, 2.86796850617616512491e-02) (135, 4.30726104860259639828e-01) (136, -1.54425728039766263500e+00) (137, -3.93378309002174386677e+00) (138, -5.50266016703187332837e+00) (139, -6.13003723471440054027e-01) (140, 1.80983115957768031512e-01) (141, -1.31460774187506483912e+01) (142, -1.79572367139711957407e+02) (143, -7.10677742958068847656e-01) (144, -8.72309105714169752410e-01) (145, -7.56924772994975847418e-01) (146, 1.67774601499996955933e-01) (147, -9.25286765696372692780e-01) (148, -1.10215709491681512766e+00) (149, 3.70615319776280816022e-01) (150, -1.08606379858499502156e+00) (151, 1.59248864402629308756e-01) (152, -5.36749266595950214054e+00) (153, -3.81729271910835032955e+00) (154, -3.31343028546638018739e+00) (155, -4.19954893543576790460e-01) (156, -9.21314239567348147730e-01) (157, 3.42057787508344635086e+00) (158, -1.13552603924713579886e+01) (159, -7.20416649244725704193e-01) (160, -6.55799996351209668610e-01) (161, -5.21259077436070694667e-01) (162, -2.28831935834635835647e+00) (163, -6.40193059045344625702e-01) (164, 7.26857434889452980187e-02) (165, -1.02180167460035242755e+00) (166, -3.24820497526557061541e-01) (167, -9.20921619429494797693e-01) (168, -3.56841600581040252482e-01) (169, -4.98368637321353502578e-01) (170, -4.25807802550935352026e-02) (171, -9.85802961102079544631e-01) (172, -4.12230369114463646163e-01) (173, 2.76259906088353757170e+00) (174, -1.09114246981285063498e+01) (175, 7.86433473229408264160e-01) (176, -4.18470560816434300477e-01) (177, -1.16827150238929311499e+00) (178, -3.50114416281117701857e+00) (179, -2.80958108688271535058e+00) (180, -6.57836409327959392712e-01) (181, -5.99365441511599872371e-01) (182, -9.95658913387909988435e-02) (183, -4.89086181054958601955e-01) (184, 5.40096417546411800004e-01) (185, -9.70298430101263265080e-01) (186, 4.59893309789209281391e-01) (187, 2.01738359725883897866e+00) (188, 1.04275564827439692905e+00) (189, 1.06256196323204008536e+01) (190, -1.44347571335999802500e+00) (191, -7.15110624209046363831e-01) (192, 2.73288245832748244446e-01) (0, -6.47818913631747772541e+00) (1, -9.50960951880947291670e+00) (2, -9.88010067916974143998e+00) (3, -8.63129507405224103422e+01) (4, -1.06144479942812308693e+00) (5, -9.30289674288146684056e-02) (6, -8.02296995252099631735e-01) (7, 1.59290370933453495628e-01) (8, -1.34835799677227496929e+00) (9, -4.86147675956975888756e-01) (10, -9.41260061091751421003e-01) (11, -8.82460258496426064312e-01) (12, 6.96387810091079750840e-01) (13, -1.24812964833755586369e+01) (14, 3.41272074132024705317e-01) (15, -6.64037360809743404388e-01) (16, -1.72026334780177272421e+01) (17, -9.91650932436988874485e+00) (18, -4.25261076412003760083e+01) (19, -1.21272521439647484875e+00) (20, 7.54843458218176888153e-01) (21, -1.63922703125411628466e-01) (22, -6.23828955927074213506e-01) (23, -7.99321628771581305095e-01) (24, -6.87124143965468614503e-01) (25, -5.35759477577504306112e-01) (26, 5.47758730622036837943e-01) (27, -3.81904812043796004772e-01) (28, -1.27426510375812152009e-01) (29, -1.11420515729826719031e+00) (30, -8.75448482207012323997e-01) (31, -9.04711692593991756439e-01) (32, -1.61663636055683888060e+01) (33, -1.14798284470275935298e+00) (34, -5.49663076498353886379e-01) (35, -5.63190493548076265284e+00) (36, -7.77105190756715247247e-01) (37, 5.38354162830857241318e-01) (38, -1.59381105862200250778e-01) (39, -5.61370205657280796352e-01) (40, -5.52764852887149715777e-01) (41, -1.13116145987310350307e+01) (42, -4.00430105921791068546e-01) (43, -7.12595505556991581919e-01) (44, 2.53590949309152158264e-01) (45, -8.98285828752820036947e-01) (46, -2.90305918771635695919e-01) (47, 9.72561870701611042023e-01) (48, -1.62193173452189363104e+01) (49, -8.59534171768364663180e-01) (50, -8.82528655274453927015e-02) (51, -5.91984001737365961304e+00) (52, -9.73920953892109864114e-01) (53, 3.99232315924280323216e-01) (54, 6.58444680134106841152e-01) (55, -4.89811620520036017368e-01) (56, -1.73082997352591472229e+00) (57, -1.09942868116574903325e+01) (58, 5.50740296821622954404e-01) (59, 2.69013110438185598650e-01) (60, -3.66000189261181663181e-02) (61, -1.16356957194937349342e+00) (62, 2.46016774899328050097e-01) (63, 2.10392186418175697327e-01) (64, -1.60664769292717970472e+01) (65, -5.88353324137730858412e-03) (66, -1.67095772861081598437e-01) (67, 5.83789856987029232016e-01) (68, -7.85696650990619138710e-01) (69, 7.20245718499150533454e-01) (70, -6.80649234006374892481e-01) (71, -5.02254017038808009410e-01) (72, -9.51239923081639027203e+00) (73, -7.63408185230728619786e+00) (74, 3.29243360658861672352e-01) (75, -2.21195584570450298756e-01) (76, 6.32875018539924782957e-01) (77, -8.97709071522720503111e-01) (78, 3.83208952642399777733e-02) (79, 3.58559785410761833191e-01) (80, -1.60073056251650847059e+01) (81, 9.80820284491255134363e-01) (82, -2.85522360676986663997e-01) (83, 5.67642653895183757484e-01) (84, 1.76158668734182871640e-01) (85, -5.64279824429495313609e-01) (86, -6.00831846813055681089e-01) (87, 2.86478586056588047093e-01) (88, -1.08102853962542488908e+00) (89, -8.99294906363678925310e-01) (90, -3.99899538092220729890e-01) (91, -1.34301216480577401136e+00) (92, -6.62244189181569242741e-01) (93, -9.31216282572524534089e-01) (94, 4.88532665165456125855e-01) (95, -7.57250535301864147186e-01) (96, -1.66539152136912740332e+01) (97, -8.93098456481433045084e-01) (98, -9.83203661818121465998e-01) (99, -9.77236617956198205803e-01) (100, -1.44794117204511452179e+00) (101, -6.09113413158575922601e-01) (102, -9.61555979075600975037e-01) (103, -2.40454201041419621645e-04) (104, -9.35470593956436280436e-01) (105, 4.72227307080522185068e-01) (106, -1.01150325424690290532e+00) (107, -1.09082409040273264900e+00) (108, -1.01588537959306512981e+00) (109, -1.69054944101673876311e-01) (110, 8.59750400277169313235e-01) (111, 8.63378694280982017517e-01) (112, -3.55831624838191995508e+00) (113, -7.52198771787022990587e-01) (114, -6.44899360269773236354e-01) (115, -2.32029575468347815104e+00) (116, -1.51046985004131634200e-01) (117, -9.67412103188139416154e-01) (118, 3.16506842507039976020e-02) (119, -9.32185066388884919775e+00) (120, -6.05044705150125761151e-01) (121, -7.23713507167530023523e-01) (122, -2.52158054609102844079e-01) (123, 4.88056412289583629871e-01) (124, -5.17571109867142387095e-01) (125, -5.73645328469591042619e-01) (126, -6.47715007662456154769e-01) (127, 7.27216960862278938293e-01) (128, -2.01307074249430541235e-02) (129, -1.10221861882900729057e+00) (130, -1.28526339400129741009e+00) (131, -5.00729227089304118614e-01) (132, -2.71276113432177501394e-01) (133, 9.45181703263493905309e-02) (134, -1.13261878108448943436e+00) (135, -3.29216181315900968674e-01) (136, 7.13826806084449511092e-02) (137, -8.57130767744260224639e-01) (138, 2.41622622023762306798e-01) (139, 5.79767043314669619503e-02) (140, 2.31216318525347158674e-01) (141, -5.98162309541780179423e-01) (142, -1.13241938944874287465e+00) (143, -9.06509004533290863037e-01) (144, 7.64872044468187461952e-01) (145, -2.19210784855031343143e-02) (146, -2.22529902042684168961e+00) (147, -6.57501551249328519688e-01) (148, 4.52596202065590258456e-01) (149, 5.70993379036059844900e-01) (150, 1.30243272977088771214e-02) (151, -1.09452973759837557388e+00) (152, -9.32983871357550675896e-01) (153, 3.57919165638241124072e-02) (154, -9.02892795483331456197e-01) (155, -1.58083359148659369220e-01) (156, 9.86656365924952538649e-01) (157, -4.69682681380168387530e-01) (158, -1.76939459340897142781e+00) (159, -2.78747177682816982269e-01) (160, -5.87807454956806529900e-01) (161, 6.15046629968122648968e-01) (162, -1.74503322733690979796e+00) (163, -2.40879053480862415082e-01) (164, -6.92473692303142529351e-04) (165, 4.46176730714018254798e-01) (166, -1.32483422278557561036e+00) (167, -6.91627875439511319300e-01) (168, -1.10638995079890478657e+00) (169, 6.81452066554495083928e-01) (170, -1.20072426718542635271e+00) (171, 4.48216521574924114946e-02) (172, 2.28630868179044460797e-01) (173, 6.72685513974141224836e-01) (174, -9.04786795473366378673e-01) (175, -3.59012723900377750397e-01) (176, -2.20848316183425125159e-01) (177, 4.68517582446981661892e-01) (178, 7.75830248489224466590e-02) (179, -1.17240025093945954282e+00) (180, 9.29262461115229476682e-02) (181, -5.69533324464110757290e-01) (182, -9.31566584270058783979e-01) (183, 3.78194796744072136985e-01) (184, -8.37328862236893178839e-01) (185, -2.25138933623032555520e-01) (186, -6.58191219923861758900e-01) (187, -1.01317304427699128588e+00) (188, -1.90001546844181745666e-01) (189, 2.00646654225438120234e-01) (190, -1.41626743728579285175e+00) (191, 2.71460538730025291443e-01) (192, -1.73956042798155685603e-01) (0, -1.39006415767006008544e-01) (1, -6.77986834631891466252e-01) (2, -1.91617464964990880105e+01) (3, -6.81661077525164471602e-01) (4, 7.82488615150452204716e-01) (5, 6.64585782209532460740e-01) (6, -3.32818437151658139128e-02) (7, 2.84552973284403001863e-02) (8, 3.01608718471347847512e-01) (9, 1.53828075949386633425e+00) (10, 1.14185150807729640654e+00) (11, -4.98122294522924835558e-01) (12, 6.26231425865215296511e-01) (13, -2.74606773017069372145e-01) (14, 1.74589873691501651365e+00) (15, 7.33119742944836616516e-02) (16, 9.58355142563388051613e-01) (17, -5.71980274252237297361e-01) (18, -1.19964706893332131443e+01) (19, -2.87052702589005760692e-02) (20, 1.25570623351929144818e+00) (21, 1.60069195765512439777e+01) (22, 6.22453475065157024737e-01) (23, -7.94612925465142533321e-02) (24, 1.84013828526264980323e-02) (25, 7.24008923427090222980e-01) (26, 1.03712023586939117159e+00) (27, 1.20755747269769986296e+00) (28, -1.74466365866794564932e-01) (29, 2.29775810635604760268e-01) (30, 1.43693354610382018066e+00) (31, -1.09509754925966262817e-01) (32, 7.66840143888995795507e-01) (33, 2.72123227860202765438e-01) (34, 1.85898534668670817327e-01) (35, 1.91252571490441114488e-01) (36, 1.74497615085343782404e+00) (37, 1.16779398551288937647e+00) (38, 2.54001453402358245981e-01) (39, -1.06618740231528480455e-01) (40, 5.29525192669498379061e-01) (41, 5.73195140570761582643e-02) (42, 2.51583919454754556533e-01) (43, 1.89010075843771496729e-01) (44, 8.42504042439387368368e-01) (45, 9.89548532328669461222e-01) (46, 8.57816059099412314026e+02) (47, -4.68966726213693618774e-01) (48, 3.54554129911518259299e-02) (49, -6.35402983809891463984e-01) (50, 8.24904447416808128679e-01) (51, 4.03274983453532798183e-01) (52, 1.12536279007235275884e+01) (53, 1.42053689997361148878e-01) (54, 3.36183079242323878955e-01) (55, 2.84804355095575056911e-01) (56, 5.79384739442148521960e-01) (57, 1.54370268926228848549e-01) (58, -6.14004926269538647832e-02) (59, 1.19271964899418270178e+00) (60, 1.17332977950791894628e+00) (61, 1.18771095521063374534e+00) (62, 8.95306387648306234439e+00) (63, 1.90448568202555179596e-01) (64, 3.85899808086261730811e-01) (65, 2.34303923695159976859e+00) (66, 2.99043046396446943191e+00) (67, 1.10844928173596124488e+00) (68, 1.46844828739093440362e+01) (69, -2.06153940281406683477e-01) (70, 7.86484968519862048808e-01) (71, 3.81541651176968352188e-02) (72, -3.23064491432134351379e-02) (73, -2.66977541129646334106e-01) (74, 8.35646769319806081988e-01) (75, 4.99409422559501658956e-01) (76, -7.20668101622045220722e+00) (77, 2.75707981589706729864e+00) (78, 1.15697657726081047258e+03) (79, -1.27546526491641998291e-01) (80, 1.30819887091945141755e+00) (81, 1.77884206192971383587e+00) (82, 1.31558462588131486193e+00) (83, 3.09761354062798455189e+00) (84, 1.48911850350357131134e+01) (85, -1.62296867162184457745e-02) (86, 5.69864725045052811225e-01) (87, 4.11821442481875410468e-01) (88, 2.93483511681148834249e-01) (89, -5.53588026394974841438e-01) (90, 3.33549020796440776060e-01) (91, 5.25279852834134308726e-02) (92, -7.29028194486309288891e+00) (93, 3.17693202497999660494e+00) (94, 1.15685171941695693931e+03) (95, 1.28004639409482479095e-01) (96, 1.26353760791550584486e+00) (97, 7.08498370599577764750e-01) (98, -7.33519180637677070678e-01) (99, 9.16603202076862522141e-01) (100, 1.53581394663704817738e+00) (101, 9.85660830370492013763e-01) (102, -3.97804339965585174177e-01) (103, -4.92442172608462958028e-01) (104, -5.56988110620699972131e-01) (105, -7.29847507261507710830e-01) (106, 1.21167164309562891411e+00) (107, -1.58633161299910702136e-01) (108, 1.40037714881415564783e+00) (109, 1.09609945645380557622e+00) (110, 9.58020454136915418530e+02) (111, 6.10359737649559974670e-01) (112, 1.33735368144556088232e+00) (113, -1.00417402882273285036e-01) (114, 1.58853147658644133777e+00) (115, 6.65760007456971836248e-01) (116, -5.02936909153713709864e-02) (117, 1.54325630914838890506e-01) (118, -2.89447158288132777582e-01) (119, 2.01349354098950028558e+00) (120, 7.60823321907197258618e-01) (121, 7.41252192321161351707e-01) (122, -6.40766869093877811103e-02) (123, 1.17215077355291685812e+00) (124, 1.07619672451206449537e+00) (125, 9.09226044601538552214e-01) (126, 2.18357836041299123053e+02) (127, 3.67579611018300056458e-01) (128, 1.93127079044406979591e+00) (129, 2.95173755568630957757e-01) (130, 1.26683708073997158827e+00) (131, 1.07805985092859568653e+00) (132, -3.28021725413339515498e-01) (133, -5.13710199877741691132e-01) (134, -7.11603687312601929094e-01) (135, -6.44323368351185088443e-02) (136, 5.17184499526450625062e-01) (137, -7.57925450853815019236e-01) (138, 3.07388997549180587043e-01) (139, 5.11103669401768101466e-01) (140, -5.48330022369229674872e-01) (141, -5.60584598776429077205e-01) (142, 2.18035685920787472014e+02) (143, 7.25926131010055541992e-01) (144, 2.47692384679740085218e+00) (145, -1.70841984975189320473e-01) (146, 5.26578401040602828154e-01) (147, 9.21111482987961083246e-01) (148, 1.18169214360402530239e+00) (149, 5.07171163581783157603e-01) (150, 2.52848231160269376616e+00) (151, 5.45016024781509900166e-01) (152, 1.37576181632864752435e-01) (153, -5.05910908493699573718e-01) (154, 2.73004137717591521817e-01) (155, 1.94826325614193301972e-01) (156, 7.13440801287265724540e-01) (157, 1.69282126329076221261e+00) (158, 2.40742424066181229136e+03) (159, 2.32243170030415058136e-01) (160, 2.29290080086266412351e+00) (161, -3.68354267593588094454e-02) (162, 2.98169996646055590617e+00) (163, 4.95718023570420995849e-01) (164, 1.14366759626579805875e+00) (165, 4.26109736073126077471e-01) (166, 9.84670869579085894507e-01) (167, 7.56814856482590087028e-02) (168, 3.49834821961106767763e-01) (169, 2.76798533403075017190e-02) (170, 8.74720361824748882107e-01) (171, 1.16729159075659727485e+00) (172, 1.18117648378404194176e+00) (173, 1.48117144287283314386e-01) (174, 2.40676654804780082486e+03) (175, 8.55718145146965980530e-01) (176, 2.30283373796319379423e+00) (177, 2.90042667153384181589e+00) (178, 1.15064256541205955919e+00) (179, -2.02960416944812538365e-01) (180, 9.21463699102651578876e-01) (181, 2.14494715250041489973e-01) (182, 7.99988779105780811740e-01) (183, -5.49804258077964180806e-01) (184, 2.11483711293302206746e-01) (185, -2.73487878321891086930e-01) (186, 7.24782506424279777089e-04) (187, -4.03136390992608395489e-01) (188, -2.26316965210957593557e-01) (189, 1.37085917715188143617e+00) (190, 2.35696941726888144331e+03) (191, -1.44933402538299560547e-01) (192, 8.68131152494038549339e-02) (0, -9.83925108647769497416e-01) (1, 1.01391445666557644678e+00) (2, -5.60201733277888691553e-01) (3, 5.27619312080301661183e-01) (4, 8.82050300693632438609e-01) (5, 3.17643932033047304841e-01) (6, -4.84011463615398818128e-01) (7, -5.23318632988398646511e-01) (8, 5.81591151140786744023e-02) (9, 1.05893314329331023060e+00) (10, 2.71006243278237357597e-01) (11, 2.29814274706251486791e-01) (12, -2.52164728135734150793e-01) (13, 4.79247778110265143514e-01) (14, 9.81562057218192562935e-01) (15, 1.80873833596706390381e-02) (16, -4.08415691743767905741e-01) (17, -8.18821998238502879452e-01) (18, -8.47426085742800094813e-01) (19, 7.88883876265136452233e-01) (20, 7.27220388355536262459e-01) (21, -2.90583440294561512474e-01) (22, -2.79370184223232509435e-01) (23, -8.51674325209884730548e-01) (24, 1.58497362664721225256e-01) (25, -6.37711009208457579867e-01) (26, -4.38621921029284489446e-01) (27, 5.51789711833575169386e-01) (28, -7.20544991945293866742e-01) (29, 6.44032631425251800295e-01) (30, -8.03596015097145843775e-01) (31, -5.66030414775013923645e-01) (32, 1.54382728010644242750e-02) (33, 7.46866687683343632997e-01) (34, 8.18602525747780140897e-01) (35, -9.23683427503944887160e-03) (36, -8.14928553972297797792e-01) (37, -4.13867143510042168053e-01) (38, 